dim_0,dim_1,dim_2,dim_3,dim_4,dim_5,dim_6,dim_7,dim_8,dim_9,dim_10,dim_11,dim_12,dim_13,dim_14,dim_15,dim_16,dim_17,dim_18,dim_19,label
1.2495380360633135e-05,-1.0733634553616866e-05,-5.1807164709316567e-05,4.776813511853106e-05,6.195711466716602e-05,0.00016637565568089485,-8.505307050654665e-05,-1.783350671757944e-05,-9.116090222960338e-05,-2.3812681320123374e-06,-1.692063597147353e-05,6.201806172612123e-06,2.3532707928097807e-05,-5.913200220675208e-05,5.7463414123049006e-05,0.00011719958274625242,-2.3889326257631183e-05,2.6185101887676865e-05,-4.844887735089287e-05,4.663301297114231e-05,5.0
1.441978383809328e-05,-1.4103079593041912e-05,-5.780354331363924e-05,4.7851208364591e-05,6.404203304555267e-05,0.00016428333765361458,-8.252248517237604e-05,-2.0967934688087553e-05,-9.312995825894177e-05,4.7959983930923045e-06,-1.4737746823811904e-05,4.894109224551357e-06,2.1517200366361067e-05,-5.3009443945484236e-05,5.260104080662131e-05,0.0001102298338082619,-2.7456015232019126e-05,2.8823647880926728e-05,-4.77834400953725e-05,4.7961282689357176e-05,5.0
1.0909039701800793e-05,-1.290220461669378e-05,-5.4028441809350625e-05,5.040910036768764e-05,6.58973294775933e-05,0.00016599419177509844,-8.908011659514159e-05,-1.9691200577653944e-05,-9.399823466083035e-05,2.99169187201187e-06,-1.999991582124494e-05,1.1624001672316808e-06,2.4321581804542802e-05,-5.337096081348136e-05,6.160106568131596e-05,0.00011103400902356952,-2.7597559892456047e-05,2.754952947725542e-05,-4.9142872740048915e-05,4.514791726251133e-05,5.0
8.99544102139771e-06,-7.579172233818099e-06,-5.2127274102531374e-05,4.731923036160879e-05,6.399057747330517e-05,0.00017153131193481386,-8.436675852863118e-05,-2.191771454818081e-05,-9.183782822219655e-05,-7.511942385463044e-06,-2.082110586343333e-05,-2.914986453106394e-06,2.1967713109916076e-05,-5.671404505847022e-05,4.868226096732542e-05,0.00011677376460283995,-2.279368527524639e-05,2.7002268325304613e-05,-5.7011078752111644e-05,4.983344115316868e-05,5.0
3.733017365448177e-06,-1.5224104572553188e-06,-5.610396328847855e-05,4.0544484363636e-05,6.0140169807709754e-05,0.00016307694022543728,-7.815346179995686e-05,-1.9188672013115138e-05,-8.152127702487633e-05,-8.735369192436337e-07,-1.7611360817681998e-05,-5.526443601411302e-06,2.6925987185677513e-05,-6.197313632583246e-05,5.4574607929680496e-05,0.00011622643796727061,-2.8047625164617784e-05,2.9768645617878065e-05,-5.7797242334345356e-05,5.3869687690166757e-05,5.0
1.0431540431454778e-05,-1.2187025276944041e-05,-5.12685946887359e-05,4.575102138915099e-05,6.5394546254538e-05,0.00016728031914681196,-8.725978841539472e-05,-2.0979523469577543e-05,-9.31729591684416e-05,-5.028890882385895e-06,-1.1943575373152271e-05,5.4314459703164175e-06,2.713780850172043e-05,-6.613832374569029e-05,5.109269477543421e-05,0.00011262337648076937,-2.7025722374673933e-05,3.639019632828422e-05,-5.192415846977383e-05,4.462416109163314e-05,5.0
1.2260010407771915e-05,-3.1978597689885646e-06,-5.347383194020949e-05,5.0053880841005594e-05,6.255271728150547e-05,0.00016527294064871967,-8.650278323329985e-05,-2.2239231839193963e-05,-9.690203296486288e-05,-5.393878382164985e-06,-1.784547566785477e-05,2.7704254534910433e-07,2.4399763788096607e-05,-5.9276269894326106e-05,5.4149877541931346e-05,0.00011225670459680259,-2.6301693651475944e-05,2.7464888262329623e-05,-4.840060501010157e-05,4.988368891645223e-05,5.0
1.2145173968747258e-05,-5.502235580934212e-06,-5.3328123613027856e-05,4.939704740536399e-05,6.323204434011132e-05,0.00017409122665412724,-8.012360922293738e-05,-2.164740908483509e-05,-9.10417438717559e-05,-3.913504770025611e-06,-1.4182853192323819e-05,8.491679182043299e-06,2.7008991310140118e-05,-5.3967898566043004e-05,5.131429134053178e-05,0.00011039197124773636,-2.8121645300416276e-05,2.9189781344030052e-05,-5.236380820861086e-05,4.966623964719474e-05,5.0
1.087899727281183e-05,-1.561717363074422e-05,-5.83358523726929e-05,4.7957455535652116e-05,6.561660848092288e-05,0.0001697863481240347,-8.360794890904799e-05,-1.690803219389636e-05,-9.462593880016357e-05,-3.536952135618776e-07,-1.851853812695481e-05,1.8074929357680958e-06,2.12850372918183e-05,-5.9654958022292703e-05,5.845581472385675e-05,0.0001132330799009651,-2.6735109713627025e-05,2.9438931960612535e-05,-5.544986197492108e-05,5.2856434194836766e-05,5.0
1.5206111129373312e-05,-1.310678999288939e-05,-5.5153337598312646e-05,4.332372918725014e-05,6.564387877006084e-05,0.00016668828902766109,-8.014791819732636e-05,-2.0826755644520745e-05,-9.381655399920419e-05,-1.185013388749212e-06,-1.1900825484190136e-05,2.9319912755454425e-06,2.4747827410465106e-05,-5.84313202125486e-05,5.624252662528306e-05,0.0001124790869653225,-2.604633482405916e-05,2.8948452381882817e-05,-5.194155528442934e-05,5.7072058552876115e-05,5.0
9.28519875742495e-06,-6.46169064566493e-06,-5.79400293645449e-05,4.1210885683540255e-05,6.25832035439089e-05,0.00016816412971820682,-8.893045014701784e-05,-1.8967124560731463e-05,-9.334115020465106e-05,-3.330835170345381e-06,-2.080889680655673e-05,-5.278264325170312e-06,2.7404839784139767e-05,-6.115918222349137e-05,5.139034692547284e-05,0.00011440104572102427,-2.374566247453913e-05,3.4472082916181535e-05,-5.1127928600180894e-05,5.2896262786816806e-05,5.0
9.473376849200577e-06,-1.8274040485266596e-06,-5.5221738875843585e-05,4.6300312533276156e-05,5.9402249462436885e-05,0.00016664036957081407,-8.559488924220204e-05,-2.3122174752643332e-05,-9.42947663133964e-05,-4.77376306662336e-06,-6.649428542004898e-06,-7.3888809311029036e-06,2.6297338990843855e-05,-5.606213380815461e-05,4.9974063585978e-05,0.00011324495426379144,-1.9664310457301326e-05,3.043870674446225e-05,-5.309096377459355e-05,4.418630851432681e-05,5.0
1.0008341632783413e-05,-7.784310582792386e-06,-5.36642583028879e-05,4.1516093915561214e-05,6.633160228375345e-05,0.00016797386342659593,-8.39095882838592e-05,-2.0420102373464033e-05,-9.153227438218892e-05,-1.8389509932603687e-06,-1.950110527104698e-05,-2.787822268146556e-06,2.2717284082318656e-05,-5.852987305843271e-05,5.321443313732743e-05,0.00011649013322312385,-2.7107675123261288e-05,2.9446800908772275e-05,-5.052152118878439e-05,5.387679993873462e-05,5.0
1.3280274288263172e-05,-7.956095942063257e-06,-5.57399180252105e-05,4.555382110993378e-05,6.458429561462253e-05,0.0001624967553652823,-8.458923548460007e-05,-2.4699578716536053e-05,-9.130040416494012e-05,1.125274138757959e-06,-2.096164462273009e-05,-3.889772415277548e-07,2.6285202693543397e-05,-6.194357411004603e-05,4.752840322908014e-05,0.00010618376836646348,-3.29298127326183e-05,2.890646646847017e-05,-5.160884029464796e-05,4.786528370459564e-05,5.0
-3.211532020941377e-05,1.27071762108244e-05,-3.821359496214427e-05,3.073160769417882e-05,3.33964271703735e-06,0.00015120740863494575,-6.152091373223811e-05,4.156363502261229e-06,-4.2215920984745026e-05,-5.9335376136004925e-05,-4.7337998694274575e-05,1.0133621799468528e-05,4.0607374103274196e-05,-8.309538679895923e-05,5.3308598580770195e-05,0.00015192001592367887,-3.9161946915555745e-05,1.183983840746805e-05,-3.6731660657096654e-05,3.413983722566627e-05,5.0
1.2627002433873713e-05,-1.2103697372367606e-05,-5.837209755554795e-05,4.635551158571616e-05,6.607988325413316e-05,0.00016317181871272624,-8.810379222268239e-05,-1.9143531972076744e-05,-9.676696208771318e-05,6.071350071579218e-07,-1.8072572856908664e-05,-6.323457455437165e-07,2.0698158550658263e-05,-4.756573980557732e-05,5.566016989178024e-05,0.00011161042493768036,-3.265427949372679e-05,3.0215003789635375e-05,-5.0196220399811864e-05,4.9857539124786854e-05,5.0
1.5712284948676825e-05,-9.572413546266034e-06,-5.237738150754012e-05,5.052195047028363e-05,6.002726513543166e-05,0.00016440550098195672,-8.248002268373966e-05,-2.8660597308771685e-05,-9.301694080932066e-05,-1.1394222383387387e-06,-8.131049980875105e-06,6.4102732721949e-07,2.860842869267799e-05,-6.243353709578514e-05,5.110962956678122e-05,0.00011689837992889807,-2.8168133212602697e-05,2.8519207262434065e-05,-4.5539891289081424e-05,4.718598574982025e-05,5.0
1.3016746379435062e-05,-1.0028412361862138e-05,-5.625859193969518e-05,4.300905857235193e-05,6.699438381474465e-05,0.00016103639791253954,-8.395253826165572e-05,-2.4127451979438774e-05,-9.523180779069662e-05,3.912035026587546e-06,-1.6449994291178882e-05,2.177759597543627e-06,1.703300222288817e-05,-5.5160518968477845e-05,5.38702734047547e-05,0.00011610609362833202,-2.444890014885459e-05,2.88941701001022e-05,-4.8842317482922226e-05,4.917655314784497e-05,5.0
1.0634641512297094e-05,-8.961727871792391e-06,-5.277462332742289e-05,4.335306221037172e-05,6.877852138131857e-05,0.00016867739032022655,-8.8941102148965e-05,-1.9530234567355365e-05,-9.592661808710545e-05,-3.894412657245994e-06,-1.750541923684068e-05,-1.1383392120478675e-05,2.8168020435259677e-05,-5.698425229638815e-05,5.3086736443219706e-05,0.00011501446715556085,-2.3285403585759923e-05,3.12150405079592e-05,-5.453011181089096e-05,4.8333007725887e-05,5.0
1.4616962289437652e-05,-1.2540196621557698e-05,-5.520767444977537e-05,4.013944271719083e-05,6.314069469226524e-05,0.00016560536460019648,-7.791999087203294e-05,-1.7346472304780036e-05,-9.156830492429435e-05,-5.612964741885662e-07,-2.3119817342376336e-05,-9.067297241927008e-07,2.426204810035415e-05,-6.026182745699771e-05,5.037544542574324e-05,0.00010864825162570924,-2.5074426957871765e-05,3.367926910868846e-05,-4.850760888075456e-05,5.5313255870714784e-05,5.0
1.5182726201601326e-05,-1.4332268619909883e-05,-5.314523878041655e-05,4.5321234210859984e-05,7.013881986495107e-05,0.00016191057511605322,-8.62529850564897e-05,-2.4216362362494692e-05,-9.742184192873538e-05,-4.717276169685647e-06,-1.7274425772484392e-05,-7.48867114452878e-06,2.648582449182868e-05,-6.461180601036176e-05,4.9376554670743644e-05,0.00010965397814288735,-2.2320427888189442e-05,3.192879376001656e-05,-5.417771899374202e-05,5.038181188865565e-05,5.0
1.3602024409919977e-05,-1.1205716873519123e-05,-5.595626498688944e-05,5.12327860633377e-05,6.866577314212918e-05,0.0001679592241998762,-8.82965832715854e-05,-1.9628047084552236e-05,-0.00010037602623924613,5.0978233048226684e-06,-2.2684969735564664e-05,-1.6334797692252323e-06,1.6882779164006934e-05,-4.721180448541418e-05,5.4137482948135585e-05,0.00011032995098503307,-2.17245160456514e-05,2.895333818742074e-05,-5.132504884386435e-05,5.0355345592834055e-05,5.0
1.7412319721188396e-05,-4.381799953989685e-06,-5.466672882903367e-05,4.139492375543341e-05,6.706780550302938e-05,0.0001656608219491318,-8.138202974805608e-05,-2.5848299628705718e-05,-9.002663136925548e-05,-1.6033300198614597e-06,-2.0295494323363528e-05,1.221902493853122e-06,1.9303568478790112e-05,-5.1956048991996795e-05,5.344449891708791e-05,0.00010871162521652877,-2.9960996471345425e-05,2.7592468541115522e-05,-4.391912807477638e-05,5.508536196430214e-05,5.0
1.2187185348011553e-05,-1.4448745787376538e-05,-5.6388329539913684e-05,5.2801071433350444e-05,6.523376214317977e-05,0.0001575960050104186,-7.712194201303646e-05,-2.249789577035699e-05,-9.378452523378655e-05,7.696271495660767e-06,-2.277597741340287e-05,7.967446435941383e-08,1.5744455595267937e-05,-4.263720256858505e-05,4.784132761415094e-05,0.00010358283179812133,-2.6779021936818026e-05,3.8985719584161416e-05,-4.799800080945715e-05,3.540392208378762e-05,5.0
1.0710697097238153e-05,-9.38273296924308e-06,-5.278876415104605e-05,4.066889960085973e-05,6.777930684620515e-05,0.0001668488694122061,-8.583052112953737e-05,-1.9705616068677045e-05,-9.458564454689622e-05,-1.232252543559298e-06,-2.6614150556270033e-05,-4.85703185404418e-06,2.064015279756859e-05,-5.643853364745155e-05,5.149054777575657e-05,0.00011268514208495617,-2.3348460672423244e-05,3.264638871769421e-05,-5.373599560698494e-05,4.869785698247142e-05,5.0
1.1598021956160665e-05,-6.318055966403335e-06,-5.9693782532121986e-05,5.007262006984092e-05,6.148367538116872e-05,0.0001668387121753767,-8.005606650840491e-05,-2.357258927077055e-05,-9.227961709257215e-05,1.0278825357090682e-05,-1.567164872540161e-05,6.6518828134576324e-06,1.6250272892648354e-05,-5.43812639079988e-05,4.803826232091524e-05,0.00010910381388384849,-2.9964196073706262e-05,2.4561584723414853e-05,-4.755421105073765e-05,4.829440877074376e-05,5.0
1.4125580491963774e-05,-1.1906893632840365e-05,-5.30680081283208e-05,5.128895281814039e-05,6.15730241406709e-05,0.00016968324780464172,-8.67300113895908e-05,-2.352787123527378e-05,-9.970925748348236e-05,-9.237337508238852e-07,-1.9072340364800766e-05,1.0072139957628679e-06,2.941604907391593e-05,-5.607693674392067e-05,5.614714973489754e-05,0.00011091559281339869,-2.3539410904049873e-05,3.359674519742839e-05,-5.729472468374297e-05,4.7408986574737355e-05,5.0
1.0608799129840918e-05,-6.961800681892782e-05,-3.035063491552137e-05,8.339502528542653e-05,-2.2161797460285015e-05,7.155759521992877e-05,9.337741357740015e-05,-2.4869943445082754e-05,-1.857904135249555e-05,7.164115231717005e-05,-1.4190265574143268e-05,8.746103412704542e-05,2.7411799237597734e-05,-8.125624299282208e-05,-4.732044180855155e-05,2.724684054555837e-05,-7.587243089801632e-06,2.5456218281760812e-05,6.209786079125479e-05,-2.16088374145329e-05,10.0
1.542081736261025e-05,-1.0175961506320164e-05,-5.880399839952588e-05,4.513017847784795e-05,6.383468280546367e-05,0.00016634422354400158,-7.999339140951633e-05,-2.3394388335873373e-05,-9.691269224276766e-05,-1.8208265828434378e-06,-1.4647303032688797e-05,1.1689749044307973e-06,1.7478922018199228e-05,-5.588359999819659e-05,5.033869092585519e-05,0.00011151487706229091,-2.9071748940623365e-05,2.833145481417887e-05,-4.548315337160602e-05,5.0221839046571404e-05,5.0
-1.9899362087016925e-05,-7.141118840081617e-05,-2.6324880309402943e-05,8.140123827615753e-05,-1.7633572497288696e-05,8.373813761863858e-05,9.114175918512046e-05,-1.5654739399906248e-05,3.6834171623922884e-07,6.449584907386452e-05,5.83445216761902e-06,0.0001114093029173091,4.8176225391216576e-05,-9.926839265972376e-05,-4.72327446914278e-05,3.6741490475833416e-05,1.5914762116153724e-05,2.2496522433357313e-05,4.941038059769198e-05,-2.2068719772505574e-05,10.0
1.1400319635868073e-05,-5.534155206987634e-06,-5.8959729358321056e-05,4.015232843812555e-05,6.988984387135133e-05,0.0001566664141137153,-8.536760287825018e-05,-2.2154374164529145e-05,-9.450521611142904e-05,4.343382897786796e-08,-2.2990367142483592e-05,-1.343201120107551e-06,1.1586360415094532e-05,-5.0514147005742416e-05,5.500693805515766e-05,0.00010315130930393934,-2.8956857931916602e-05,3.387738615856506e-05,-5.095824599266052e-05,4.074724347447045e-05,5.0
1.7406593542546034e-05,-1.572969267726876e-05,-6.0126509197289124e-05,4.996637289877981e-05,6.11207215115428e-05,0.00015435439127031714,-8.238424197770655e-05,-1.9109669665340334e-05,-8.599249122198671e-05,9.031336958287284e-06,-2.082571154460311e-05,1.4769884728593752e-06,1.811189576983452e-05,-5.1319791964488104e-05,5.2566414524335414e-05,0.00010967602429445833,-3.0446459277300164e-05,2.50358170887921e-05,-4.7998324589570984e-05,4.914808232570067e-05,5.0
1.1602809536270797e-05,-1.0222567652817816e-05,-5.838342985953204e-05,4.30171967309434e-05,6.144840153865516e-05,0.00015819413238205016,-7.499007188016549e-05,-2.0723680790979415e-05,-8.801495278021321e-05,3.275225026300177e-06,-1.6277150280075148e-05,3.920153176295571e-06,1.4702374755870551e-05,-5.2661693189293146e-05,5.388748104451224e-05,0.00011057690426241606,-2.9138411264284514e-05,2.4800243409117684e-05,-4.230396734783426e-05,4.720258584711701e-05,5.0
1.4680656022392213e-05,-1.3215856597525999e-05,-6.056417623767629e-05,4.707860716735013e-05,6.433844828279689e-05,0.00016849127132445574,-8.415681077167392e-05,-1.9629263988463208e-05,-9.658977069193497e-05,2.043172571575269e-06,-2.5203604309353977e-05,4.506307050178293e-06,2.125413084286265e-05,-5.834603507537395e-05,5.2504430641420186e-05,0.00011643119069049135,-3.22821615554858e-05,2.8564536478370428e-05,-5.330159910954535e-05,5.166057962924242e-05,5.0
8.173716196324676e-06,-8.949580660555512e-06,-5.67057759326417e-05,4.8744535888545215e-05,6.26541004749015e-05,0.000158565555466339,-7.622604607604444e-05,-2.4352628315682523e-05,-9.565689106239006e-05,5.5209166021086276e-06,-1.776394128683023e-05,4.36726440966595e-06,2.263223723275587e-05,-5.7329194532940164e-05,5.0741211452987045e-05,0.00010586743883322924,-2.113702976203058e-05,3.0389128369279206e-05,-5.579241405939683e-05,5.260747639113106e-05,5.0
1.025036908686161e-05,-1.2878794223070145e-05,-5.66760754736606e-05,4.6131102863000706e-05,6.339464744087309e-05,0.00016230477194767445,-8.679580787429586e-05,-2.7358042643754743e-05,-9.513134864391759e-05,-5.554720701184124e-07,-1.6949699784163386e-05,4.968990197085077e-06,2.185024095524568e-05,-6.362526619341224e-05,4.913796510663815e-05,0.00010680283594410866,-2.3595097445650026e-05,3.146832386846654e-05,-5.2869894716423005e-05,3.682830720208585e-05,5.0
9.9402095656842e-06,-6.354221113724634e-06,-5.4561387514695525e-05,3.963458220823668e-05,6.650284194620326e-05,0.00016744820459280163,-6.505625060526654e-05,-1.9450730178505182e-05,-8.823788084555417e-05,-2.900618710555136e-06,-1.4411860320251435e-05,1.0792297871375922e-05,2.878768827940803e-05,-6.92907051416114e-05,4.289107891963795e-05,0.00011372361768735573,-1.962094393093139e-05,2.262600537505932e-05,-5.487698217621073e-05,4.983455437468365e-05,5.0
1.1266653018537909e-05,-5.589427019003779e-06,-5.747994509874843e-05,4.511154111241922e-05,5.745670569012873e-05,0.0001652222272241488,-7.197233207989484e-05,-1.8480030121281743e-05,-8.475677896058187e-05,-5.169669748283923e-06,-1.61371826834511e-05,1.1517863640619908e-05,2.4992379621835425e-05,-6.38263882137835e-05,4.843240094487555e-05,0.00011721196642611176,-2.800183938234113e-05,2.2097079636296257e-05,-5.157179111847654e-05,4.9589580157771707e-05,5.0
-1.5656660252716392e-05,-8.05952658993192e-05,-2.090936504828278e-05,9.098758891923353e-05,-1.7132570064859465e-05,7.967610144987702e-05,8.944871660787612e-05,-7.5157695391681045e-06,-3.828987246379256e-06,6.313210178632289e-05,-6.261325324885547e-06,9.466850315220654e-05,5.220157254370861e-05,-9.821802086662501e-05,-3.289217420388013e-05,1.3095112080918625e-05,1.0003392162616365e-05,3.363229552633129e-05,3.884176112478599e-05,-1.686453470028937e-05,10.0
1.370393147226423e-05,-7.837665179977193e-06,-5.8961795730283484e-05,5.409765799413435e-05,6.290538294706494e-05,0.00016933084407355636,-8.750749111641198e-05,-2.0886438505840488e-05,-9.639030031394213e-05,3.3121068554464728e-06,-2.341706567676738e-05,1.864207661128603e-06,1.7084976207115687e-05,-4.782705582329072e-05,4.85719574498944e-05,0.00011076859664171934,-2.957703691208735e-05,2.814401887007989e-05,-4.9916729039978236e-05,4.1763883928069845e-05,5.0
-3.5654084058478475e-06,-5.820369551656768e-06,-5.326921018422581e-05,4.427247040439397e-05,5.7053181080846116e-05,0.00016523845260962844,-6.859100540168583e-05,-2.276335726492107e-05,-7.870075933169574e-05,-1.13988971861545e-05,-1.7895690689329058e-05,1.6340374713763595e-05,1.793714181985706e-05,-6.964278873056173e-05,4.309842915972695e-05,0.00011253540287725627,-1.9093346054432914e-05,3.196648685843684e-05,-6.606698298128322e-05,4.287389310775325e-05,5.0
1.7591701180208474e-05,-4.041743522975594e-06,-5.4779371566837654e-05,4.897658436675556e-05,5.645539204124361e-05,0.00016094796592369676,-7.283555169124156e-05,-3.143653884762898e-05,-8.777078619459644e-05,1.7291567928623408e-06,-1.99240239453502e-05,9.48259730648715e-06,1.1977868780377321e-05,-5.272030830383301e-05,4.815794818568975e-05,0.00010029382247012109,-3.140286207781173e-05,2.6671878003980964e-05,-4.7084802645258605e-05,4.803217598237097e-05,5.0
1.5385296137537807e-05,-1.373186387354508e-05,-5.6053373555187136e-05,4.692780930781737e-05,5.95950405113399e-05,0.00016915056039579213,-7.829596870578825e-05,-1.879388582892716e-05,-9.299698285758495e-05,2.5459266908001155e-06,-1.577302100486122e-05,1.436537058907561e-05,2.1565196220763028e-05,-5.8540339523460716e-05,4.827552038477734e-05,0.00011238174192840233,-2.6625099053489976e-05,2.5396311684744433e-05,-5.0721697334665805e-05,5.2950534154661e-05,5.0
1.510834408691153e-05,-5.484042048919946e-06,-5.6001161283347756e-05,4.636859011952765e-05,6.839080742793158e-05,0.00016522248915862292,-8.166760380845517e-05,-2.2399115550797433e-05,-9.054929250851274e-05,-7.01805402059108e-06,-2.0054540073033422e-05,1.20441882245359e-07,2.287952884216793e-05,-5.637863796437159e-05,5.10425707034301e-05,0.00011709248065017164,-3.2005831599235535e-05,2.8860278689535335e-05,-4.63818505522795e-05,5.1154471293557435e-05,5.0
1.564726699143648e-05,-1.6180587408598512e-05,-5.2448467613430694e-05,5.485034853336401e-05,6.77352145430632e-05,0.00016344441974069923,-9.183517249766737e-05,-1.8124277630704455e-05,-9.506945207249373e-05,6.916812708368525e-06,-2.3195123503683135e-05,-4.696784344560001e-06,2.2241409169510007e-05,-5.4711646953364834e-05,5.6906199461081997e-05,0.00010979008220601827,-2.519713598303497e-05,3.196453690179624e-05,-4.931760850013234e-05,4.981038728146814e-05,5.0
1.1930460459552705e-05,-9.519295417703688e-06,-5.9240133850835264e-05,4.427569001563825e-05,6.394377851393074e-05,0.00016452395357191563,-8.0774916568771e-05,-2.9196935429354198e-05,-8.94981058081612e-05,-5.4332522267941386e-06,-1.5501231246162206e-05,1.5926161722745746e-08,2.3845132091082633e-05,-6.257364293560386e-05,5.004622653359547e-05,0.00011223976616747677,-2.8459819077397697e-05,2.7673737349687144e-05,-4.942691884934902e-05,4.356256977189332e-05,5.0
1.0478019248694181e-05,-6.400641723303124e-06,-5.868242442375049e-05,4.1474460886092857e-05,5.773784141638316e-05,0.00016251341730821878,-8.996771066449583e-05,-2.732469693000894e-05,-9.920782031258568e-05,-1.0205119906459004e-05,-2.129771382897161e-05,-4.708466804004274e-06,2.1758960428996943e-05,-6.28801280981861e-05,5.506937304744497e-05,0.00011800669017247856,-2.4144310373230837e-05,2.9293812985997647e-05,-5.17115076945629e-05,4.3622432713164017e-05,5.0
-5.110276833875105e-05,-1.3907992979511619e-08,-7.49553000787273e-05,-6.623880472034216e-05,-2.0183984815957956e-05,2.9495509807020426e-05,0.00016878325550351292,-3.966023723478429e-05,0.00011055250797653571,-2.4432862119283527e-05,-6.30063732387498e-05,-1.0752304660854861e-05,6.524722994072363e-05,-0.00013781263260170817,-3.8005575333954766e-05,-7.807055226294324e-06,1.3491433492163196e-05,3.1920306355459616e-05,-6.832439248682931e-05,1.4943121641408652e-05,0.0
1.1367796105332673e-05,-5.802277883049101e-06,-5.302733552525751e-05,4.44179167971015e-05,5.7051256590057164e-05,0.0001661372953094542,-7.424807699862868e-05,-2.2060816263547167e-05,-9.049102663993835e-05,-4.86155113321729e-06,-2.0779145415872335e-05,1.4023113180883229e-05,2.306480018887669e-05,-5.440196764538996e-05,4.7738387365825474e-05,0.00011360863572917879,-3.093313716817647e-05,1.8504619220038876e-05,-5.053694258094765e-05,4.9339250836055726e-05,5.0
1.1315321899019182e-05,-5.836631316924468e-06,-5.6205135479103774e-05,4.916259058518335e-05,6.98783915140666e-05,0.00016790986410342157,-8.534825610695407e-05,-1.533803151687607e-05,-0.00010098157508764416,1.0560615919530392e-06,-2.3041411623125896e-05,-2.5379931685165502e-06,1.7367485270369798e-05,-5.193449032958597e-05,5.370835424400866e-05,0.00011191359226359054,-2.4502311134710908e-05,2.4590601242380217e-05,-4.7131310566328466e-05,5.180379230296239e-05,5.0
9.612114808987826e-06,-3.4570366551633924e-06,-5.6404478527838364e-05,3.807783650700003e-05,5.71022646909114e-05,0.0001698320993455127,-7.129176810849458e-05,-2.08656692848308e-05,-9.432650404050946e-05,-3.5037228371948004e-06,-1.682299262029119e-05,-1.634306499909144e-06,2.4927952836151235e-05,-6.618123734369874e-05,5.465539652504958e-05,0.00011413735774112865,-2.4566093998146243e-05,3.1014118576422334e-05,-5.569769564317539e-05,5.1212115067755803e-05,5.0
9.399023838341236e-06,-9.021165169542655e-06,-5.301020428305492e-05,3.9338112401310354e-05,5.843164035468362e-05,0.00016589555889368057,-7.6803655247204e-05,-1.7866259440779686e-05,-9.409702761331573e-05,-1.0176263458561152e-06,-2.9662332963198423e-06,-3.5682110137713607e-06,2.7374024284654297e-05,-6.322903209365904e-05,5.4628399084322155e-05,0.00011168657511007041,-2.0380341084091924e-05,2.8554011805681512e-05,-5.1693183195311576e-05,5.763373337686062e-05,5.0
1.3409990060608834e-05,-8.437869837507606e-06,-5.535150194191374e-05,4.336061465437524e-05,5.958480323897675e-05,0.0001601797412149608,-7.921867654658854e-05,-2.5497178285149857e-05,-8.562103903386742e-05,-3.7049612728878856e-06,-1.4409255527425557e-05,1.1963743418164086e-06,1.9887425878550857e-05,-5.832186434417963e-05,5.4853546316735446e-05,0.00011708775127772242,-3.094295971095562e-05,2.798861896735616e-05,-5.029896055930294e-05,5.472673728945665e-05,5.0
1.7412006855010986e-05,-1.2239273928571492e-05,-5.365792094380595e-05,3.9004546124488115e-05,6.562414637301117e-05,0.0001669761841185391,-8.140073623508215e-05,-2.4785424102446996e-05,-9.012983355205506e-05,1.2733289622701705e-06,-1.1968091712333262e-05,2.364153033340699e-06,2.008374940487556e-05,-5.6204258726211265e-05,4.987029024050571e-05,0.0001063961535692215,-2.1798847228637896e-05,2.929802576545626e-05,-5.123279697727412e-05,4.799219095730223e-05,5.0
1.0905059752985835e-05,-1.239242556039244e-05,-6.062802640371956e-05,4.2226278310408816e-05,6.285967538133264e-05,0.00016467484238091856,-8.110433554975316e-05,-2.2537176846526563e-05,-9.439130371902138e-05,1.4950164768379182e-06,-1.5107398212421685e-05,-7.971389095473569e-07,2.8061593184247613e-05,-5.17985135957133e-05,4.574003833113238e-05,0.00010864630166906863,-2.993778070958797e-05,3.358048343216069e-05,-5.306035382091068e-05,5.482232154463418e-05,5.0
7.456429011654109e-05,-0.00012111176329199225,-9.968425729312003e-05,-5.8585537772160023e-05,1.3283863154356368e-05,-3.3496027754154056e-05,-2.751978172454983e-06,-2.60881643043831e-06,-4.136966890655458e-05,6.256923370528966e-05,-1.6019730537664145e-06,-0.00013445521472021937,7.89253317634575e-06,-9.827380563365296e-05,5.0619761168491095e-05,2.960459823952988e-06,-3.6514175008051097e-06,5.4491913033416495e-05,4.4476961193140596e-05,1.5119956515263766e-05,2.0
1.5016237739473581e-05,-5.214122211327776e-06,-5.844571569468826e-05,4.454516965779476e-05,5.99759332544636e-05,0.0001566367718623951,-8.484972931910306e-05,-1.8087279386236332e-05,-9.348541789222509e-05,-5.009969754610211e-06,-1.3489425327861682e-05,2.7919454623770434e-06,1.9886023437720723e-05,-5.689485988114029e-05,5.378360947361216e-05,0.00011657751747407019,-2.492015300958883e-05,2.191625753766857e-05,-4.2563973693177104e-05,4.9191745347343385e-05,5.0
2.0293118723202497e-05,-1.5545818314421922e-05,-5.244715794106014e-05,4.884775626123883e-05,6.189840496517718e-05,0.00015732452447991818,-7.907949475338683e-05,-2.221574504801538e-05,-9.561347542330623e-05,5.490823241416365e-06,-1.5786172298248857e-05,1.127905761677539e-06,1.978329601115547e-05,-4.998654912924394e-05,5.239816164248623e-05,0.00010577870125416666,-2.6842473744181916e-05,2.4466302420478314e-05,-4.426045052241534e-05,4.610417818184942e-05,5.0
9.591385605745018e-06,-8.577870175940916e-06,-5.291259731166065e-05,4.303666719351895e-05,6.680942897219211e-05,0.00017021430539898574,-8.449940651189536e-05,-1.6735848475946113e-05,-9.317928197560832e-05,-1.0224903235211968e-07,-2.140275319106877e-05,6.429772838600911e-07,2.1880596250412054e-05,-6.215464964043349e-05,4.8362562665715814e-05,0.00011568970512598753,-2.4979517547762953e-05,2.8279886464588344e-05,-5.517205499927513e-05,5.221442552283406e-05,5.0
1.2118856830056757e-05,-1.0268293408444151e-05,-5.964607771602459e-05,4.367053406895138e-05,7.054949674056843e-05,0.00016282088472507894,-8.211450767703354e-05,-2.1173114873818122e-05,-9.95835944195278e-05,1.909324055304751e-06,-2.0796247554244474e-05,-1.9087597138423007e-06,2.0394581952132285e-05,-4.7428464313270524e-05,5.472331395139918e-05,0.00011145250755362213,-2.302009852428455e-05,3.0050934583414346e-05,-4.7128247388172895e-05,4.5193690311862156e-05,5.0
1.2912722013425082e-05,-9.527338988846168e-06,-5.534319643629715e-05,4.331930176704191e-05,6.310663593467325e-05,0.00016199408855754882,-8.870920282788575e-05,-2.2422836991609074e-05,-9.316515934187919e-05,1.968906872207299e-06,-2.1954681869829074e-05,3.795820703089703e-06,1.705092472548131e-05,-6.152317655505612e-05,5.143725866219029e-05,0.0001156263897428289,-2.897863305406645e-05,3.206281689926982e-05,-4.985031046089716e-05,4.8484398575965315e-05,5.0
1.6620222595520318e-05,-2.185798075515777e-05,-5.9441328630782664e-05,4.915236058877781e-05,6.875370308989659e-05,0.0001632870698813349,-8.344693924300373e-05,-1.5430623534484766e-05,-9.795960795599967e-05,9.080358722712845e-06,-2.0415580365806818e-05,-3.4679674172366504e-06,2.0927122022840194e-05,-4.790669845533557e-05,5.4452197218779474e-05,0.00010476729949004948,-2.817505446728319e-05,3.342803756822832e-05,-4.9769751058192924e-05,4.6929755626479164e-05,5.0
6.708112778142095e-06,-2.707904059207067e-06,-6.045656118658371e-05,5.158789281267673e-05,5.538387631531805e-05,0.00015892006922513247,-7.448102405760437e-05,-2.5965959139284678e-05,-9.061460150405765e-05,7.175196515163407e-06,-1.8623180949361995e-05,7.464559075742727e-06,1.5700157746323384e-05,-6.677089550066739e-05,4.444240403245203e-05,0.00011094711953774095,-2.6689816877478734e-05,3.1061288609635085e-05,-5.046973092248663e-05,5.125398820382543e-05,5.0
-2.988748747156933e-05,-1.2948259609402157e-05,-5.04481176903937e-05,0.00016153838078025728,3.369247860973701e-05,-1.0157381439057644e-05,-0.0001515250332886353,-1.7560778360348195e-05,-5.6570508604636416e-05,2.753404260147363e-05,-0.0001522187958471477,8.96390793059254e-06,-4.1921673982869834e-05,4.105657717445865e-05,-4.002416608273052e-05,-2.8827216738136485e-06,-8.686201181262732e-05,0.00011420820374041796,-6.471314554801211e-05,-8.641790191177279e-05,1.0
-5.724398943129927e-05,1.5033907402539626e-05,-8.156598778441548e-05,-6.765230500604957e-05,1.3147494428267237e-05,5.283708014758304e-05,0.00015641257050447166,-3.5303244658280164e-05,0.000119707481644582,-3.367316094227135e-05,-6.026277696946636e-05,-3.122844282188453e-05,6.317091174423695e-05,-0.00015437317779287696,-3.360407208674587e-05,1.2705571862170473e-05,2.4157328880392015e-05,5.3898373153060675e-05,-8.99194274097681e-05,2.4492244847351685e-05,0.0
-4.448991239769384e-05,2.5526596800773405e-06,-7.450067641912028e-05,-4.005148366559297e-05,2.4120741727529094e-05,8.52892262628302e-05,0.00011279154568910599,-3.555501461960375e-05,9.269417205359787e-05,-2.456892980262637e-05,-5.872924521099776e-05,-2.4325672711711377e-05,4.642800195142627e-05,-0.0001330417871940881,-2.9830178391421214e-05,3.444328103796579e-05,3.0118058930383995e-05,4.8775546019896865e-05,-9.82978381216526e-05,3.0152659746818244e-05,0.0
1.1120617273263633e-05,-1.2768130545737222e-05,-5.488971510203555e-05,4.407750748214312e-05,6.922833563294262e-05,0.00016550520376767963,-8.831075683701783e-05,-1.8529837689129636e-05,-9.633714216761291e-05,-2.081127604469657e-06,-2.109241540892981e-05,-2.9881887257943163e-06,2.221060640295036e-05,-5.059441537014209e-05,5.688446981366724e-05,0.00011142667062813416,-2.7755499104387127e-05,3.3617652661632746e-05,-5.352725929697044e-05,4.9172944272868335e-05,5.0
6.0853919421788305e-05,-0.0001178767706733197,-8.253194391727448e-05,-5.720509943785146e-05,1.7296311852987856e-05,-1.1451671525719576e-05,-1.8704517060541548e-05,-3.3808828447945416e-06,-3.6419824027689174e-05,5.040686664870009e-05,6.659725841018371e-06,-0.0001512321614427492,2.3609056370332837e-05,-0.0001061775692505762,6.63790269754827e-05,1.6260573829640634e-05,2.3997738026082516e-05,6.976697477512062e-05,2.5076013116631657e-05,5.242836778052151e-06,2.0
1.2898774002678692e-05,-1.2418913684086874e-05,-5.406541094998829e-05,5.224285268923268e-05,6.50496658636257e-05,0.00016531167784705758,-8.606957999290898e-05,-2.0013898392789997e-05,-9.514107659924775e-05,1.9458821043372154e-07,-1.392471676808782e-05,-2.0439524632820394e-06,2.5677220037323423e-05,-4.8575602704659104e-05,5.233769479673356e-05,0.00011009860463673249,-2.536036481615156e-05,2.9171442292863503e-05,-5.4367985285352916e-05,4.1405826777918264e-05,5.0
1.6283811419270933e-05,-7.509159331675619e-06,-5.8889629144687206e-05,4.1367762605659664e-05,6.080318780732341e-05,0.00015671594883315265,-7.378667942248285e-05,-2.0020959709654562e-05,-9.560665057506412e-05,7.866019586799666e-06,-1.35856207634788e-05,2.512832452339353e-06,2.0140445485594682e-05,-5.443082773126662e-05,5.0318856665398926e-05,0.00010571816528681666,-2.7800466341432184e-05,2.723004945437424e-05,-4.073371383128688e-05,4.757010538014583e-05,5.0
-9.519400191493332e-05,8.31937650218606e-05,9.415329986950383e-05,9.042889723787084e-05,-8.446938591077924e-05,0.00017006041889544576,-6.954000127734616e-05,2.020775355049409e-05,1.934023021021858e-05,-5.844973202329129e-05,-7.338816794799641e-05,7.399085006909445e-05,5.9603480622172356e-05,-4.4782456825487316e-05,5.870577660971321e-05,0.0001401345944032073,3.4100812627002597e-06,2.1715306502301246e-05,-2.0947445591446012e-06,-4.586534487316385e-06,4.0
6.174406735226512e-06,-4.163521225564182e-06,-5.1926203013863415e-05,4.142228499404155e-05,6.912174285389483e-05,0.00016557826893404126,-7.863435166655108e-05,-2.5367584385094233e-05,-8.549117774236947e-05,-4.999023076379672e-06,-1.4690634998260066e-05,4.041739430249436e-06,2.8893662602058612e-05,-6.157150346552953e-05,4.636136145563796e-05,0.00010912316793110222,-1.810017420211807e-05,3.5757519071921706e-05,-5.9402260376373306e-05,4.16854745708406e-05,5.0
2.060747647192329e-06,5.431465979199857e-07,-5.4903797717997804e-05,2.7851154300151393e-05,5.398878420237452e-05,0.0001552798057673499,-4.4902844820171595e-05,-3.827385444310494e-05,-4.811223334399983e-05,-1.3927565305493772e-05,-1.74679298652336e-05,-5.069944108981872e-07,2.6927162252832204e-05,-6.94733316777274e-05,2.6797402824740857e-05,0.00010137150820810348,-9.258170393877663e-06,2.6819885533768684e-05,-5.191432865103707e-05,3.960988760809414e-05,5.0
1.6722064174246043e-05,-1.2729484296869487e-05,-5.2370272896951064e-05,4.71285056846682e-05,6.23403539066203e-05,0.00016099181084427983,-7.650542102055624e-05,-2.084082007058896e-05,-9.084599878406152e-05,9.033014066517353e-06,-1.557774521643296e-05,-1.1950914995395578e-06,2.3357632016995922e-05,-5.1359533244976774e-05,4.5723496441496536e-05,0.00010970995936077088,-2.5334735255455598e-05,2.9367507522692904e-05,-4.480874849832617e-05,5.3815463616047055e-05,5.0
-1.598068411112763e-05,-6.862432201160118e-05,-4.34970497735776e-05,7.109007856342942e-05,-2.7357556973583996e-05,9.037785639520735e-05,0.00012095262354705483,-1.2914497347082943e-05,6.196252797963098e-06,7.139018271118402e-05,-7.571135938633233e-06,8.368674025405198e-05,4.426817031344399e-05,-9.64093633228913e-05,-3.2573065254837275e-05,3.383968214620836e-05,4.893116056337021e-06,2.6609877750161104e-05,4.9266385758528486e-05,-1.1299347534077242e-05,10.0
1.4575787645298988e-05,-7.999384251888841e-06,-4.639655526261777e-05,4.1733987018233165e-05,6.243142706807703e-05,0.00017262797337025404,-7.724399620201439e-05,-2.461323128954973e-05,-9.257299825549126e-05,1.594497007317841e-06,-6.857128028059378e-06,1.3731193575949874e-05,2.3063976186676882e-05,-5.515376687981188e-05,3.8934471376705915e-05,0.0001164437344414182,-1.918917587317992e-05,2.6278190489392728e-05,-5.2531198889482766e-05,4.922986408928409e-05,5.0
1.0640971595421433e-05,-9.963947377400473e-06,-5.9175825299462304e-05,5.334042361937463e-05,6.523987394757569e-05,0.00016712935757823288,-8.611989323981106e-05,-2.3022937966743484e-05,-9.643236990086734e-05,2.4059445422608405e-06,-1.6908081306610256e-05,1.2405116649460979e-06,2.3072734620654956e-05,-5.388914723880589e-05,5.468589733936824e-05,0.00011147552140755579,-2.649845919222571e-05,3.3388852898497134e-05,-4.9279871745966375e-05,5.0719183491310105e-05,5.0
1.43717261380516e-05,-1.2651078577619046e-05,-5.1200840971432626e-05,4.309383439249359e-05,6.241476512514055e-05,0.00016263262659776956,-7.991374877747148e-05,-2.3673157556913793e-05,-9.154186409432441e-05,3.7550598790403455e-06,-1.901805808302015e-05,2.067240529868286e-07,2.224648960691411e-05,-5.537173638003878e-05,5.496023004525341e-05,0.00011601284495554864,-2.601566302473657e-05,3.519297388265841e-05,-5.153380334377289e-05,4.756632188218646e-05,5.0
1.248107582796365e-05,-1.6223566490225494e-05,-5.311026325216517e-05,6.159250187920406e-05,5.6406755902571604e-05,0.0001675058447290212,-8.022886322578415e-05,-1.825253275455907e-05,-8.757851901464164e-05,4.179626557743177e-06,-2.3761600459693e-05,5.311131189955631e-06,2.0136736566200852e-05,-5.673927807947621e-05,4.940929648000747e-05,0.00010408967500552535,-2.754856541287154e-05,2.3466735001420602e-05,-4.789663580595516e-05,4.708085907623172e-05,5.0
1.4053293853066862e-05,-4.041568899992853e-06,-5.2805884479312226e-05,4.306976552470587e-05,6.422803562600166e-05,0.00016678444808349013,-7.89421028457582e-05,-1.8498036297387443e-05,-9.378301911056042e-05,2.3586580937262625e-06,-1.8533377442508936e-05,2.70025952886499e-06,1.8872555301641114e-05,-5.715460065403022e-05,5.576164403464645e-05,0.00011283770436421037,-2.887492155423388e-05,3.222826126147993e-05,-4.740841541206464e-05,5.2451629017014056e-05,5.0
8.468397572869435e-05,-5.391850572777912e-05,-0.00013788875367026776,-7.443582580890507e-05,-4.82379000459332e-05,-3.1660958484280854e-05,0.00011269510287092999,-3.122116322629154e-05,-2.9615694074891508e-05,8.143513696268201e-05,-6.0809736169176176e-05,-4.811185135622509e-05,-3.9197773730847985e-05,-8.20911955088377e-05,2.19004723476246e-05,1.9364888430573046e-06,-7.268682384165004e-05,-7.933062079246156e-06,9.121732728090137e-05,4.899287523585372e-05,9.0
1.6886027879081666e-05,-1.4520534023176879e-05,-5.5575768783455715e-05,4.023014480480924e-05,6.487261271104217e-05,0.00016774958930909634,-7.46862351661548e-05,-2.194907756347675e-05,-8.972189971245825e-05,-7.408278179354966e-06,-1.75531895365566e-05,-6.144091457827017e-08,2.6678722861106507e-05,-6.406863394659013e-05,4.714319948107004e-05,0.00011576910765143111,-2.2074751541367732e-05,2.7887301257578656e-05,-5.729926488129422e-05,5.528495239559561e-05,5.0
6.99620068189688e-05,-4.351468669483438e-05,-0.00012779611279256642,-6.462288729380816e-05,-5.865744242328219e-05,-4.333573815529235e-05,0.00011746239033527672,-3.8119185774121433e-05,-4.152805558987893e-05,9.001846774481237e-05,-6.450293585658073e-05,-4.977560820407234e-05,-4.461864591576159e-05,-6.971273978706449e-05,1.6565834812354296e-05,-5.316185706760734e-06,-7.686173194088042e-05,-1.2499029253376648e-05,8.545915625290945e-05,4.695344250649214e-05,9.0
1.3946162653155625e-05,-1.5327004803111777e-05,-5.518317993846722e-05,4.990687739336863e-05,5.8540292229736224e-05,0.0001525253028376028,-8.120589336613193e-05,-1.8229578927275725e-05,-9.026836778502911e-05,1.2045478797517717e-05,-1.3379009033087641e-05,2.0365150703582913e-06,2.190141094615683e-05,-5.105470336275175e-05,5.701275586034171e-05,0.00011319965415168554,-2.1459743948071264e-05,3.048684448003769e-05,-4.240936686983332e-05,4.406624429975636e-05,5.0
1.142007386079058e-05,-9.22995968721807e-06,-5.765754758613184e-05,4.604521018336527e-05,5.9264300944050774e-05,0.0001669921912252903,-7.707842451054603e-05,-2.0411947843967937e-05,-9.505229536443949e-05,-1.6782032616902143e-06,-1.430180054740049e-05,-4.917105798085686e-07,1.909564161906019e-05,-6.383951404131949e-05,4.387585067888722e-05,0.00011296072625555098,-1.4349679986480623e-05,3.0176404834492132e-05,-5.6619595852680504e-05,4.4176082155900076e-05,5.0
1.5162011550273746e-05,-1.147173679783009e-05,-5.3255524107953534e-05,4.450457709026523e-05,6.370227492880076e-05,0.00016973708989098668,-7.837868179194629e-05,-2.3462644094252028e-05,-9.22450126381591e-05,-2.9503680707421154e-06,-1.316274210694246e-05,1.0035437298938632e-05,2.211539504060056e-05,-5.896569928154349e-05,4.954269388690591e-05,0.00011522692511789501,-2.8107813704991713e-05,2.6219040591968223e-05,-5.6945027608890086e-05,4.844801514991559e-05,5.0
1.1857053323183209e-05,-1.8848633771995082e-05,-5.812250674352981e-05,4.680781057686545e-05,6.296863284660503e-05,0.00016307143960148096,-7.783315231790766e-05,-2.3183218218036927e-05,-9.019873687066138e-05,-1.3686440070159733e-07,-1.3614924682769924e-05,-1.5515743143623695e-06,1.7684928025119007e-05,-5.5385342420777306e-05,5.467580558615737e-05,0.00010602833208395168,-2.5608424039091915e-05,3.944168929592706e-05,-5.760208296123892e-05,4.608369272318669e-05,5.0
-7.603751873830333e-05,1.1125379387522116e-05,-1.7871794625534676e-05,3.2810210541356355e-05,-4.464856465347111e-05,0.00010570013546384871,-7.163669943111017e-05,3.073353582294658e-05,1.4836063201073557e-05,-0.00011615986295510083,-0.0001462289656046778,-1.1572079529287294e-05,-5.9526864788495e-06,-7.22068507457152e-05,6.909074727445841e-05,0.00014590371574740857,-7.704069867031649e-05,2.9533264751080424e-05,-5.810493166791275e-05,-2.591576412669383e-05,11.0
1.1315140000078827e-05,-4.391735274111852e-06,-5.4647000069962814e-05,4.8918536776909605e-05,6.395594391506165e-05,0.00016721388965379447,-8.400915248785168e-05,-2.16744483623188e-05,-9.742104884935543e-05,-1.1824922694358975e-06,-1.6168047295650467e-05,6.893608315294841e-07,1.3983046301291324e-05,-5.272408088785596e-05,5.164322647033259e-05,0.0001139141822932288,-1.7823967937147245e-05,3.1059651519171894e-05,-4.721743971458636e-05,5.4828306019771844e-05,5.0
1.114488986786455e-05,-1.0871113772736862e-05,-5.640633753500879e-05,4.4797641749028116e-05,6.054838377167471e-05,0.00015757065557409078,-8.324225200340152e-05,-2.3659651560592465e-05,-9.799459803616628e-05,6.149286491563544e-06,-2.422776015009731e-05,3.901959644281305e-06,1.9874072677339427e-05,-4.7367269871756434e-05,5.2657465857919306e-05,0.00011162382725160569,-2.449771091050934e-05,2.7575380954658613e-05,-4.726616680272855e-05,4.866679591941647e-05,5.0
-5.744877853430808e-06,-6.202176155056804e-05,-4.585297574521974e-05,8.796009933575988e-05,-2.6238734790240414e-05,6.051322998246178e-05,8.818892092676833e-05,-9.812683856580406e-06,-1.0558107533142902e-05,7.172223558882251e-05,-2.5463406927883625e-05,9.304632840212435e-05,2.6027408239315264e-05,-7.025210652500391e-05,-4.4552180042956024e-05,-1.6600461094640195e-07,-1.2916576451971196e-05,1.8370365069131367e-05,2.974727794935461e-05,-2.1922211089986376e-05,10.0
1.741855521686375e-05,-4.2764404497575015e-06,-5.4849519074195996e-05,4.412454291014001e-05,5.925940058659762e-05,0.00016408854571636766,-8.959745173342526e-05,-1.7683232726994902e-05,-8.33762387628667e-05,2.608743670862168e-06,-1.9348113710293546e-05,7.809007001924329e-06,1.4193921742844395e-05,-5.4029904276831076e-05,4.892982542514801e-05,0.00011685314530041069,-2.825521914928686e-05,2.681068144738674e-05,-4.644357613869943e-05,4.695613097283058e-05,5.0
1.6372956451959908e-05,-8.111175702651963e-06,-5.493520438903943e-05,4.7151603212114424e-05,5.8428686315892264e-05,0.00016302142466884106,-7.927505066618323e-05,-2.1679579731426202e-05,-9.281710663344711e-05,8.508031896781176e-07,-2.1144154743524268e-05,8.194220754376147e-06,2.0161580323474482e-05,-5.677165972883813e-05,5.3390671382658184e-05,0.00010972105519613251,-3.0682451324537396e-05,2.4981785827549174e-05,-4.5569398935185745e-05,4.740610529552214e-05,5.0
1.0528965503908694e-05,-1.024566518026404e-05,-4.711943620350212e-05,4.1676685214042664e-05,6.389713962562382e-05,0.00016030807455535978,-8.745637023821473e-05,-2.4328657673322596e-05,-9.873461385723203e-05,1.5852856449782848e-06,-1.2535758287413046e-05,7.119360816432163e-07,2.1911720978096128e-05,-6.251269951462746e-05,5.6403812777716666e-05,0.00011301763879600912,-2.0546242012642324e-05,2.877516089938581e-05,-5.254269126453437e-05,4.6774017391726375e-05,5.0
1.1632757377810776e-05,-5.681358743458986e-07,-5.972014696453698e-05,4.7127610741881654e-05,5.8327110309619457e-05,0.00016704406880307943,-7.825449574738741e-05,-2.2911553969606757e-05,-8.870528836268932e-05,4.505272954702377e-08,-1.4114899386186153e-05,4.0930535760708153e-07,2.5975787139032036e-05,-5.811839218949899e-05,5.1947503379778937e-05,0.00011578974954318255,-1.8867891412810422e-05,2.8375052352203056e-05,-5.266052176011726e-05,4.9275182391284034e-05,5.0
1.1466436262708157e-05,-7.080037903506309e-06,-5.673846317222342e-05,3.986840238212608e-05,6.513608241220936e-05,0.00016295861860271543,-8.274672291008756e-05,-2.8333983209449798e-05,-8.953901851782575e-05,1.7398670024704188e-06,-1.796442666091025e-05,-2.55158738582395e-07,1.954147774085868e-05,-5.729459007852711e-05,4.766750134876929e-05,0.00011720722250174731,-2.3797110770829022e-05,3.2710988307371736e-05,-5.2685572882182896e-05,5.032298940932378e-05,5.0
7.427937816828489e-06,-1.7775670130504295e-05,-5.575557588599622e-05,4.5976517867529765e-05,6.882941670482978e-05,0.0001640670234337449,-9.277943172492087e-05,-1.3748913261224516e-05,-8.899295062292367e-05,4.724766768049449e-06,-1.6761368897277862e-05,-2.2778235688747372e-06,2.3296317522181198e-05,-5.03328992635943e-05,5.5663320381427184e-05,0.00011370569700375199,-2.2385040210792795e-05,3.212791489204392e-05,-5.548810804612003e-05,4.74676962767262e-05,5.0
9.213639714289457e-06,-1.3123873941367492e-05,-6.0098587709944695e-05,4.510390499490313e-05,6.484061304945499e-05,0.00015832777717150748,-8.247239748016e-05,-1.4638328138971701e-05,-9.14640404516831e-05,3.4282384149264544e-06,-1.1041316611226648e-05,1.1771517165470868e-06,2.27391083171824e-05,-5.429360317066312e-05,4.963652099831961e-05,0.00011084350990131497,-2.538154149078764e-05,3.112542981398292e-05,-4.786569843417965e-05,4.821862239623442e-05,5.0
-1.2795055226888508e-05,-2.989395215990953e-05,-5.3995543566998094e-05,0.0001584387937327847,3.228075001970865e-05,-1.6349069483112544e-05,-0.00013994041364639997,-1.8399034161120653e-05,-4.8626974603394046e-05,3.463012762949802e-05,-0.00014577152614947408,6.954831405892037e-06,-4.0125953091774136e-05,2.6775654987432063e-05,-3.390502024558373e-05,2.2748990886611864e-06,-8.386197441723198e-05,0.00011517792154336348,-6.710011803079396e-05,-8.191174129024148e-05,1.0
1.3942273653810844e-05,-2.138051058864221e-05,-6.868423224659637e-05,0.00011245792848058045,2.4391774786636233e-06,-2.7840997063321993e-05,-7.198705861810595e-05,-2.9935989005025476e-05,-6.072607357054949e-05,5.26790609001182e-05,-0.00015411508502438664,2.8895265131723136e-06,-5.17274129379075e-05,2.1811079932376742e-05,-2.1778454538434744e-05,-1.89156908163568e-05,-0.00010465418745297939,9.167235111817718e-05,-3.0024186344235204e-05,-5.8870067732641473e-05,1.0
1.9072816940024495e-05,-1.76141838892363e-05,-5.129840428708121e-05,4.471892680157907e-05,6.246405246201903e-05,0.00016720176790840924,-7.90314661571756e-05,-2.2034642825019546e-05,-9.457544365432113e-05,-6.997735908953473e-06,-1.737471393425949e-05,1.8363739400228951e-06,2.4450979253742844e-05,-5.003763362765312e-05,5.0780203309841454e-05,0.00011282583000138402,-2.142504854418803e-05,2.792519808281213e-05,-5.624452023766935e-05,4.692801303463057e-05,5.0
8.745175728108734e-05,-2.979020428028889e-05,-0.00011753197031794116,-4.7731555241625756e-05,-6.796960951760411e-05,-2.3392916773445904e-05,0.00013951175787951797,-5.155161488801241e-05,-5.972833969281055e-05,9.393491927767172e-05,-0.00010969299910357222,1.2978005543118343e-05,-7.108911813702434e-05,-6.19561760686338e-05,-5.040754331275821e-06,-7.2150905907619745e-06,-0.00010084161476697773,-1.2691572919720784e-05,7.991528400452808e-05,2.8601112717296928e-05,9.0
1.5458052075700834e-05,-0.00011606082262005657,-8.457410149276257e-05,-3.8531779864570126e-05,3.791868221014738e-05,1.2032294762320817e-05,-4.7805933718336746e-05,6.724127160850912e-06,-1.583878110977821e-05,4.731148510472849e-05,3.0132678148220293e-05,-0.00013321985898073763,3.482028841972351e-05,-8.40330685605295e-05,8.480261021759361e-05,4.158222509431653e-05,1.5126898688322399e-05,7.214879587991163e-05,3.148084942949936e-06,2.275901715620421e-05,2.0
-1.8947066564578563e-06,-5.054498615209013e-05,-4.434631409822032e-05,0.00011222602188354358,-9.662340744398534e-06,6.876623956486583e-05,5.653767584590241e-05,-2.565457543823868e-05,-2.5952158466679975e-05,7.589696906507015e-05,-4.9905498599400744e-05,0.00010665891750250012,1.0543772987148259e-05,-6.492984539363533e-05,-4.1015155147761106e-05,1.8324313714401796e-05,-1.4249546438804828e-05,3.2700419978937134e-05,3.315234062029049e-05,-2.387713539064862e-05,10.0
1.427464303560555e-05,-1.128492658608593e-05,-5.9570818848442286e-05,4.506256300373934e-05,6.777831731596962e-05,0.00017062158440239727,-8.219054143410176e-05,-2.3605325623066165e-05,-9.733560000313446e-05,-3.0768387659918517e-06,-1.4362820365931839e-05,-2.921035502367886e-07,2.8812090022256598e-05,-5.591892113443464e-05,5.275869625620544e-05,0.00011108473700005561,-2.7932166631217115e-05,2.8412690880941227e-05,-5.4213363910093904e-05,4.4802523916587234e-05,5.0
1.0150552043342032e-05,-5.415046325651929e-05,-2.532459438953083e-05,9.406637400388718e-05,-1.540259472676553e-05,7.890025153756142e-05,7.576104690087959e-05,-2.3036667698761448e-05,-5.316502210916951e-06,7.063399971229956e-05,-6.604857844649814e-06,9.507104550721124e-05,3.420892608119175e-05,-8.712348790140823e-05,-4.03004523832351e-05,1.0601645044516772e-05,6.31382636129274e-06,3.195948738721199e-05,3.1579926144331694e-05,-3.020102303707972e-05,10.0
1.1871416063513607e-05,-1.6381229215767235e-05,-5.76391103095375e-05,5.125737880007364e-05,6.31720176897943e-05,0.00016113217861857265,-8.686979708727449e-05,-1.632894236536231e-05,-9.326238796347752e-05,4.99110683449544e-06,-1.2803018762497231e-05,2.8574913812917657e-07,3.065208875341341e-05,-4.848163735005073e-05,5.560443241847679e-05,0.00011305210500722751,-3.140627813991159e-05,3.1038372981129214e-05,-4.792623803950846e-05,4.1113464249065146e-05,5.0
1.2654119927901775e-05,-1.0249634215142578e-05,-5.279598917695694e-05,5.031965338275768e-05,6.155784649308771e-05,0.0001502731756772846,-7.182135595940053e-05,-2.4826933440635912e-05,-9.516013960819691e-05,9.687082638265565e-06,-2.279485488543287e-05,4.4673097363556735e-06,1.1738252396753523e-05,-6.584015500266105e-05,5.196964048082009e-05,0.00011002171959262341,-2.5870403987937607e-05,3.334445500513539e-05,-4.358832666184753e-05,4.714188980869949e-05,5.0
1.94394015124999e-05,-1.5266250557033345e-05,-5.960567796137184e-05,5.22007467225194e-05,6.335650687105954e-05,0.00016462308121845126,-7.723037560936064e-05,-1.8699272914091125e-05,-9.906361083267257e-05,4.587069270201027e-06,-1.7485250282334164e-05,9.050005246535875e-06,1.73812350112712e-05,-5.09394085383974e-05,5.487066664500162e-05,0.00011649752559605986,-2.6929470550385304e-05,2.3545049771200866e-05,-4.844084469368681e-05,5.125139796291478e-05,5.0
-1.2982038242626004e-05,-6.487315840786323e-05,-3.4055217838613316e-05,8.393592725042254e-05,-1.7986571037909016e-05,7.265995373018086e-05,8.742586214793846e-05,-1.5760855603730306e-05,-4.6947752707637846e-07,6.839260458946228e-05,-1.3968643543194048e-05,0.00010013291466748342,3.061213647015393e-05,-8.783749944996089e-05,-5.5353772040689364e-05,2.3852222511777654e-05,-1.706931652734056e-05,2.9848779377061874e-05,3.7216559576336294e-05,-2.6302321202820167e-05,10.0
9.52173286350444e-05,-1.4857829228276387e-05,-0.00013907052925787866,-5.90251584071666e-05,-8.134521340252832e-05,-2.4141892936313525e-05,0.00015209242701530457,-4.27411068812944e-05,-6.024408503435552e-05,9.958474402083084e-05,-0.0001111440360546112,5.492223863257095e-06,-7.748420466668904e-05,-6.23587766312994e-05,-6.454283720813692e-07,-5.145819159224629e-06,-0.00011953787179663777,-2.9551541956607252e-05,8.467639418086037e-05,3.920406743418425e-05,9.0
1.2031028745695949e-05,-1.0277573892381042e-05,-5.604868056252599e-05,5.1226572395535186e-05,6.6225285991095e-05,0.00017087893502321094,-8.141763100866228e-05,-1.8533699403633364e-05,-0.0001031278952723369,3.4811491786967963e-06,-1.5348770830314606e-05,3.6676042327599134e-06,1.0747929081844632e-05,-5.0727150664897636e-05,5.6594690249767154e-05,0.00011763782822526991,-3.2960881071630865e-05,2.7366786525817588e-05,-4.697833355749026e-05,5.1638195145642385e-05,5.0
1.2395204976201057e-05,-1.322413663729094e-05,-4.891570279141888e-05,5.1347211410757154e-05,6.899020809214562e-05,0.00016317614063154906,-9.031065565068275e-05,-8.605693437857553e-06,-9.921209129970521e-05,5.324578523868695e-06,-1.7428970750188455e-05,-2.650415808602702e-06,2.363783642067574e-05,-5.055274596088566e-05,5.2725452405866235e-05,0.00011019967496395111,-2.5712339265737683e-05,2.5384786567883566e-05,-5.0992181058973074e-05,5.398692155722529e-05,5.0
-1.899314156617038e-06,-7.006774831097573e-05,-1.9933537259930745e-05,8.464010898023844e-05,-3.108731107204221e-05,6.355048390105367e-05,8.228979277191684e-05,-1.4544431905960664e-05,-6.6741558839567006e-06,6.164577644085512e-05,-3.670369915198535e-05,9.462984598940238e-05,4.3967243982478976e-05,-7.098057540133595e-05,-5.563317972701043e-05,2.544998460507486e-05,-1.9450573745416477e-05,4.311956581659615e-05,3.691317033371888e-05,-3.462663880782202e-05,10.0
8.298859756905586e-05,-4.839409302803688e-05,-0.00013296984252519906,-7.170042226789519e-05,-5.336828326107934e-05,-4.611537224263884e-05,0.00011104143050033599,-3.1486819352721795e-05,-4.17947958339937e-05,9.724481060402468e-05,-6.544942152686417e-05,-5.6511242291890085e-05,-5.8113331760978326e-05,-8.017008076421916e-05,2.8288577595958486e-05,-3.2006755645852536e-06,-9.34924028115347e-05,-7.548351277364418e-06,9.135567961493507e-05,6.104067870182917e-05,9.0
1.2099691957700998e-05,-1.0467279935255647e-05,-5.4330521379597485e-05,4.721939694718458e-05,6.49258799967356e-05,0.00016640094690956175,-8.71953452588059e-05,-1.810236062738113e-05,-9.201790089718997e-05,3.3892538340296596e-06,-1.894299202831462e-05,2.390723238931969e-06,2.1222167561063543e-05,-5.39004904567264e-05,4.9874986871145666e-05,0.00011211407399969175,-2.3930919269332662e-05,2.8024878702126443e-05,-5.085792508907616e-05,4.611870099324733e-05,5.0
8.644834451843053e-06,-1.1574968084460124e-05,-4.793571133632213e-05,3.41461127391085e-05,6.300326640484855e-05,0.00016380612214561552,-7.893673318903893e-05,-2.095572381222155e-05,-9.236870391760021e-05,2.659151505213231e-06,-1.3583474355982617e-05,-4.333112883614376e-06,2.7275749744148925e-05,-6.024767571943812e-05,5.607832281384617e-05,0.00011164031457155943,-1.9291555872769095e-05,2.8635677153943107e-05,-5.3460884373635054e-05,5.054792927694507e-05,5.0
7.873869617469609e-05,-0.00012124612112529576,-0.00010297280095983297,-7.834220741642639e-05,-3.8371013033611234e-07,-1.2012893421342596e-05,4.1863680962705985e-05,-4.575740604195744e-06,-1.2208220141474158e-05,6.61981976008974e-05,3.414497768972069e-07,-0.00012886518379673362,9.615396265871823e-06,-0.00013180894893594086,4.252886719768867e-05,1.8025275494437665e-05,1.5533933037659153e-06,3.623912198236212e-05,5.1244409405626357e-05,3.755339639610611e-05,2.0
1.6144957044161856e-05,-1.759584847604856e-06,-5.315165617503226e-05,4.871670898864977e-05,5.7307966926600784e-05,0.00017171299259644002,-7.678246038267389e-05,-2.4156131985364482e-05,-8.93042451934889e-05,2.5342997105326504e-06,-1.7217840650118887e-05,8.83613211044576e-06,1.9477367459330708e-05,-5.953813160886057e-05,5.011201574234292e-05,0.00011190005170647055,-2.9906597774242982e-05,2.944781954283826e-05,-4.7219051339197904e-05,5.030553802498616e-05,5.0
1.4095159713178873e-05,-8.561473805457354e-06,-6.255754851736128e-05,5.026502549299039e-05,6.435217801481485e-05,0.0001691420329734683,-8.337488543475047e-05,-2.2534351955982856e-05,-8.607840572949499e-05,-5.947331374045461e-07,-9.161027264781296e-06,2.6275029085809365e-07,2.5607629140722565e-05,-5.6250290072057396e-05,5.186196358408779e-05,0.00010872968414332718,-2.762004623946268e-05,3.463789835222997e-05,-4.3446045310702175e-05,4.367766814539209e-05,5.0
4.842258931603283e-06,-5.028658051742241e-06,-6.0623504396062344e-05,3.1296032830141485e-05,6.221288640517741e-05,0.00015254288155119866,-4.902035652776249e-05,-2.763927295745816e-05,-7.098339847289026e-05,-6.379730621119961e-06,-2.871300239348784e-06,-1.0847859357454581e-06,1.8764923879643902e-05,-7.411781552946195e-05,3.505648783175275e-05,0.00010258961992803961,-9.007149856188335e-06,2.7027672331314534e-05,-4.69524493382778e-05,4.4813728891313076e-05,5.0
-2.9356684535741806e-05,-1.9931028873543255e-05,-4.528954377747141e-05,0.00016999494982883334,3.550521068973467e-05,-6.862553163955454e-06,-0.0001553311594761908,-2.1036132238805294e-05,-6.642467633355409e-05,1.8304848708794452e-05,-0.00015994353452697396,4.5713959480053745e-06,-2.970919740619138e-05,3.107439260929823e-05,-3.8720252632629126e-05,8.430317393504083e-06,-7.042817014735192e-05,0.00011672776599880308,-7.52682244637981e-05,-9.09363734535873e-05,1.0
1.513551251264289e-05,-1.0696236131479964e-05,-5.208261063671671e-05,4.6856024709995836e-05,5.986366159049794e-05,0.00016776620759628713,-8.17796535557136e-05,-2.1560152163146995e-05,-9.300991223426536e-05,-1.1044576240237802e-06,-1.5378984244307503e-05,8.384082320844755e-06,2.4482482331222855e-05,-6.299417145783082e-05,5.16928375873249e-05,0.00011254521814407781,-2.668523848115001e-05,2.8235790523467585e-05,-5.342313670553267e-05,5.118614717503078e-05,5.0
1.2165291991550475e-05,-1.67460493685212e-05,-5.1371338486205786e-05,5.353802043828182e-05,6.148926331661642e-05,0.00016550577129237354,-7.956761692184955e-05,-1.90294722415274e-05,-9.065693302545696e-05,5.569756467593834e-06,-1.942236121976748e-05,2.603112989163492e-06,2.5597939384169877e-05,-6.579446198884398e-05,5.364810931496322e-05,0.00010688636393751949,-2.769286948023364e-05,3.48696848959662e-05,-5.1059243560303e-05,4.94633823109325e-05,5.0
1.9340506696607918e-05,-9.863193554338068e-06,-5.617149145109579e-05,4.4491422158898786e-05,6.258213397813961e-05,0.00016938347835093737,-7.809547969372943e-05,-2.468434104230255e-05,-9.08918009372428e-05,-6.402609869837761e-06,-1.0722320439526811e-05,-1.4410022686206503e-06,2.1676318283425644e-05,-6.831157952547073e-05,4.530444857664406e-05,0.00011347886174917221,-2.7820013201562688e-05,2.6845278625842184e-05,-5.5364303989335895e-05,5.895648064324632e-05,5.0
-3.3983033063123e-05,-1.1487453775771428e-05,-4.8974165110848844e-05,0.00015873037045821548,4.629449176718481e-05,-9.883788152365014e-07,-0.00016782598686404526,-1.3763914466835558e-05,-6.0689089877996594e-05,1.8098431610269472e-05,-0.00017434448818676174,6.145164661575109e-07,-5.853655602550134e-05,4.7360415919683874e-05,-3.5363074857741594e-05,-5.023803169024177e-06,-9.378533286508173e-05,0.00011821238149423152,-7.371838000835851e-05,-8.075311779975891e-05,1.0
9.008822235045955e-05,-1.397973574057687e-05,-0.0001429632684448734,-6.135841249488294e-05,-7.769033982185647e-05,-2.2515574528370053e-05,0.0001557069772388786,-4.7216286475304514e-05,-6.440212746383622e-05,9.180349297821522e-05,-0.00011988013284280896,5.39303437108174e-06,-7.987453864188865e-05,-5.831698217662051e-05,-9.36789729166776e-06,-1.2463897292036563e-06,-0.00011468580487417057,-2.9817887480021454e-05,9.316804789705202e-05,3.1934403523337096e-05,9.0
1.3155333363101818e-05,-9.168128599412739e-05,-2.275915176142007e-05,3.349196776980534e-05,-1.1174103747180197e-05,4.566144707496278e-05,9.462742309551686e-05,-1.5211582649499178e-05,2.448234226903878e-06,7.60198017815128e-05,2.5510700652375817e-05,2.86382382910233e-05,5.710656114388257e-05,-0.00012655823957175016,-1.1871859896928072e-05,-2.9193342925282195e-06,8.758879630477168e-07,2.3835078536649235e-05,5.0086076953448355e-05,-1.7617667253944091e-06,10.0
7.906051177997142e-05,-3.8939448131714016e-05,-0.0001453907461836934,-6.351224874379113e-05,-6.959479651413858e-05,-3.497782745398581e-05,0.00012912163219880313,-4.416266529005952e-05,-5.166688424651511e-05,9.218505147146061e-05,-8.599909779150039e-05,-1.2480561053962447e-05,-6.630988355027512e-05,-7.500319043174386e-05,4.341629392001778e-06,-1.943044480867684e-06,-0.00010571607708698139,-2.340520040888805e-05,8.815283217700198e-05,5.366477489587851e-05,9.0
-5.212814357946627e-07,-7.025824015727267e-05,-2.6874957256950438e-05,8.53313467814587e-05,-2.2569751308765262e-05,6.655744800809771e-05,9.73772257566452e-05,-1.0615272913128138e-05,-2.2395845007849857e-05,7.778304279781878e-05,-3.124621434835717e-05,9.78454336291179e-05,4.4871121644973755e-05,-7.863173232180998e-05,-3.2633281080052257e-05,8.390185030293651e-06,-8.826340490486473e-06,3.772345371544361e-05,3.6758479836862534e-05,-8.719011930224951e-06,10.0
1.7451573512516916e-05,-9.471874363953248e-06,-5.568667620536871e-05,4.740397343994118e-05,6.164126534713432e-05,0.0001683515583863482,-9.45910724112764e-05,-1.8920813090517186e-05,-9.382289863424376e-05,-3.090826794505119e-08,-8.550698112230748e-06,-1.4429206203203648e-06,2.211841638199985e-05,-5.088707257527858e-05,5.2541621698765084e-05,0.0001131101162172854,-1.8736496713245288e-05,2.3306576622417197e-05,-4.696887481259182e-05,4.132363392272964e-05,5.0
-3.425877366680652e-05,-1.747557871567551e-05,-5.5327778682112694e-05,0.00016480835620313883,4.517204797593877e-05,-4.655874363379553e-06,-0.00016577374481130391,-2.005665737669915e-05,-5.535673335543834e-05,2.994288115587551e-05,-0.0001665407617110759,-3.3146643545478582e-06,-4.419641481945291e-05,3.3208671084139496e-05,-2.925481749116443e-05,-2.5249064492527395e-06,-9.043268801178783e-05,0.00012491150118876249,-7.328912033699453e-05,-8.124530722852796e-05,1.0
-6.182533252285793e-05,2.1251395082799718e-05,-7.542679668404162e-05,-5.332516229827888e-05,1.2132834854128305e-05,5.337303809938021e-05,0.00014387097326107323,-3.6945701140211895e-05,0.00011773494770750403,-2.4194589059334248e-05,-5.489962495630607e-05,-2.7226373276789673e-05,6.111208494985476e-05,-0.00014966858725529164,-3.295678470749408e-05,1.2000346032436937e-05,2.8889620807603933e-05,5.3366002248367295e-05,-9.060177399078384e-05,2.4810151444398798e-05,0.0
-1.3709721315535717e-05,-3.36587181664072e-05,-5.6809945817803964e-05,0.0001492990122642368,4.149568121647462e-05,-9.77476065600058e-06,-0.000152618158608675,-1.4003511751070619e-05,-7.03847108525224e-05,3.841501529677771e-05,-0.00014675682177767158,-1.5769310266477987e-05,-5.3667958127334714e-05,2.161003794753924e-05,-3.3468597393948585e-05,-2.1737523638876155e-06,-8.715909643797204e-05,0.00011433351755840704,-5.521028651855886e-05,-7.018257747404277e-05,1.0
-6.626195681747049e-05,-1.4089974683884066e-05,-5.991205762256868e-05,-1.7170541468658485e-05,7.002364327490795e-06,3.461735832388513e-05,0.00010367839422542602,-2.2832940885564312e-05,0.00010252649371977895,-2.4983834009617567e-05,-7.999601075425744e-05,-2.15530762943672e-05,5.4827065468998626e-05,-0.00012915872503072023,-3.785619992413558e-05,-7.283306331373751e-07,2.592784039734397e-05,5.386935663409531e-05,-9.79556716629304e-05,6.618740371777676e-06,0.0
-5.608171704807319e-06,-5.466204311233014e-05,-2.9376853490248322e-05,7.494840974686667e-05,-3.8969596062088385e-05,7.900360651547089e-05,0.00012097563012503088,-3.0129007427603938e-05,-1.3264070730656385e-07,7.56345980335027e-05,-9.909192158374935e-06,0.00012605628580786288,3.5387565731070936e-05,-7.944485696498305e-05,-5.679581227013841e-05,2.5293315047747456e-05,-1.0337978892493993e-05,6.187937742652139e-06,5.833962859469466e-05,-1.7265438145841472e-05,10.0
-3.388726327102631e-05,-2.1375002688728273e-05,-6.074423072277568e-05,0.00016111298464238644,4.19088319176808e-05,-1.1525478839757852e-05,-0.00017482593830209225,-1.9001417967956513e-05,-5.405969568528235e-05,2.7790181775344536e-05,-0.0001570550666656345,5.902547854930162e-07,-4.6480428864015266e-05,3.86867395718582e-05,-3.390086567378603e-05,-4.530855221673846e-06,-8.551983046345413e-05,0.00011822165106423199,-6.677903002128005e-05,-7.777518476359546e-05,1.0
1.0861680493690073e-05,-5.809710273751989e-06,-5.6535271141910926e-05,4.2509596823947504e-05,6.015329563524574e-05,0.00016637145017739385,-8.02033900981769e-05,-2.549159762565978e-05,-9.73051501205191e-05,2.06748882192187e-06,-1.8656039173947647e-05,4.687996806751471e-06,2.1451152861118317e-05,-5.514620352187194e-05,5.656122448272072e-05,0.0001169027600553818,-2.7601226975093596e-05,2.567372575867921e-05,-5.203865293879062e-05,5.750732816522941e-05,5.0
8.88768263394013e-05,-2.7017686079489067e-05,-0.00014360054046846926,-5.029699968872592e-05,-8.090537448879331e-05,-2.9780563636450097e-05,0.00014420817024074495,-4.725559483631514e-05,-4.996653296984732e-05,0.00010274133819621056,-0.00010545981785980985,-1.4050532627152279e-05,-7.858989556552842e-05,-6.103205669205636e-05,5.697955202776939e-06,-1.4562854630639777e-05,-0.00011552041542017832,-2.0665434931288473e-05,9.546062210574746e-05,4.134323899052106e-05,9.0
-2.3961934857652523e-05,-2.0457511709537357e-05,-6.062502507120371e-05,0.00015743085532449186,3.7286135921021923e-05,-1.1830687071778812e-05,-0.00016347889322787523,-1.753276592353359e-05,-6.0118389228591695e-05,3.029770596185699e-05,-0.0001712451921775937,-1.8927166820503771e-06,-4.816167347598821e-05,3.379669942660257e-05,-2.7015008527087048e-05,9.153245628112927e-07,-9.151414269581437e-05,0.00012404617154970765,-6.504384509753436e-05,-8.154733222909272e-05,1.0
1.7483995179645717e-05,-5.8385303418617696e-05,-4.21172589994967e-05,8.287813398055732e-05,-2.546794894442428e-05,5.5491582315880805e-05,9.409939229954034e-05,-3.9026701415423304e-05,-2.5229590391973034e-05,8.429640001850203e-05,-2.73989571724087e-05,9.210505231749266e-05,1.308501396124484e-05,-7.870493573136628e-05,-4.2021507397294044e-05,1.6141801097546704e-05,-2.4402626877417788e-05,3.585937156458385e-05,4.921819345327094e-05,-3.1031253456603736e-05,10.0
-0.00011006401473423466,-1.0030245903180912e-05,-2.2555661416845396e-05,1.270977190870326e-05,-8.479742973577231e-05,7.353921682806686e-05,-3.4132375731132925e-05,4.8025354772107676e-05,4.048489790875465e-05,-0.000124123296700418,-0.000136778355226852,-4.17146657127887e-06,4.011065902886912e-05,-9.757601947057992e-05,6.339787069009617e-05,0.00014122763241175562,-4.587940202327445e-05,1.8030332284979522e-05,-3.46449414792005e-05,-2.109156412188895e-05,11.0
-1.4160916180117056e-05,-2.2231040929909796e-05,-4.2382831452414393e-05,0.00016107378178276122,3.2064235711004585e-05,-1.4216364434105344e-05,-0.0001461081556044519,-1.6528458218090236e-05,-5.8967587392544374e-05,3.573360663722269e-05,-0.0001561162935104221,1.1600116522458848e-05,-3.1557821785099804e-05,2.903021959355101e-05,-3.137299790978432e-05,-1.0201811164733954e-05,-8.78990103956312e-05,0.00011769314005505294,-6.330454198177904e-05,-7.965458644321188e-05,1.0
9.247502021025866e-05,-2.5154771719826385e-05,-0.0001361554895993322,-5.745759335695766e-05,-8.360760693904012e-05,-1.1493975762277842e-05,0.00015814370999578387,-4.650232949643396e-05,-6.266771379159763e-05,9.824373410083354e-05,-0.0001062017836375162,9.426144970348105e-06,-7.787674985593185e-05,-7.078170165186748e-05,-6.1224272940307856e-06,-6.200421921676025e-06,-0.00011428365542087704,-2.7897929612663575e-05,9.442669397685677e-05,4.371488466858864e-05,9.0
-3.340131115692202e-06,-6.015370672685094e-05,-2.395926640019752e-05,9.893657261272892e-05,-3.52422175637912e-05,7.608626765431836e-05,8.345798414666206e-05,-2.771599974948913e-05,-2.6485759008210152e-06,7.26189318811521e-05,-1.818497185013257e-05,0.00010270433995174244,2.3904043700895272e-05,-7.375184213742614e-05,-6.370913615683094e-05,2.5935012672562152e-05,-1.3207503798184916e-05,2.8547638066811487e-05,3.9210121030919254e-05,-2.6464180336915888e-05,10.0
1.3636454241350293e-05,-9.794897778192535e-06,-5.742144276155159e-05,4.084375541424379e-05,5.592902016360313e-05,0.00015426668687723577,-8.238277223426849e-05,-2.148319072148297e-05,-9.078500443138182e-05,-4.2111059883609414e-07,-1.4474342606263235e-05,4.812490260519553e-06,2.304248118889518e-05,-5.8303707191953436e-05,5.385996701079421e-05,0.00011213422112632543,-3.6882192944176495e-05,2.360587677685544e-05,-5.295488517731428e-05,5.047070953878574e-05,5.0
-3.120020846836269e-05,-1.5955392882460728e-05,-5.408170909504406e-05,0.00015785873983986676,4.3826068576890975e-05,-1.1990176062681712e-05,-0.00015784041897859424,-2.5813285901676863e-05,-6.185530219227076e-05,3.608636325225234e-05,-0.00016028813843149692,-5.780942956334911e-06,-5.028655505157076e-05,3.639786154963076e-05,-2.7328853320796043e-05,-3.608263796195388e-06,-8.831617014948279e-05,0.00011258258018642664,-6.810755439801142e-05,-7.296374678844586e-05,1.0
9.146225056611001e-05,-0.00010564739932306111,-0.0001225853484356776,-4.6985245717223734e-05,-1.3744018360739574e-05,-1.4407036360353231e-05,4.774207263835706e-05,-1.6394016711274162e-05,-3.4623190003912896e-05,7.23702396498993e-05,-1.6606698409304954e-05,-9.401481656823307e-05,-1.0961466614389792e-05,-9.484984184382483e-05,3.2454652682645246e-05,-1.691441866569221e-06,-3.104872303083539e-05,2.569896423665341e-05,5.644492921419442e-05,2.6302095648134127e-05,9.0
-2.7534264518180862e-05,-7.561776328657288e-06,-5.1621471357066184e-05,0.00017170386854559183,3.5351953556528315e-05,3.636936526163481e-06,-0.0001635947555769235,-1.1346717656124383e-05,-6.721320823999122e-05,2.654825584613718e-05,-0.00016748273628763855,-1.4504566934192553e-06,-4.291883305995725e-05,4.354802513262257e-05,-3.438330895733088e-05,-4.3280251702526584e-06,-9.243849490303546e-05,0.00011793783778557554,-7.991788152139634e-05,-8.133416122291237e-05,1.0
1.7367252439726144e-05,-7.639442628715187e-06,-6.033233512425795e-05,4.812670886167325e-05,6.217873306013644e-05,0.000167603517184034,-8.112238720059395e-05,-2.6739591703517362e-05,-9.717882494442165e-05,2.9424700187519193e-06,-1.7676637071417645e-05,1.0355991435062606e-05,2.240973299194593e-05,-5.736140155931935e-05,4.084670217707753e-05,0.0001109561271732673,-2.1497613488463685e-05,3.075851054745726e-05,-5.2954928833059967e-05,4.341468957136385e-05,5.0
-3.191966243321076e-05,-1.7302738342550583e-05,-5.076743764220737e-05,0.0001608678576303646,4.956373231834732e-05,-5.651269020745531e-06,-0.00017078743258025497,-1.0466508683748543e-05,-5.905081343371421e-05,3.123709393548779e-05,-0.00016749431961216033,-9.091777428693604e-06,-5.330609928932972e-05,3.541927435435355e-05,-2.5200082745868713e-05,-4.424666258273646e-06,-8.770693966653198e-05,0.0001224303268827498,-8.111469651339576e-05,-8.148374035954475e-05,1.0
7.64821597840637e-05,-3.635729808593169e-05,-0.00012768228771165013,-5.983348819427192e-05,-7.01929529896006e-05,-2.841327659552917e-05,0.00016068326658569276,-4.431007255334407e-05,-3.9028902392601594e-05,8.946684101829305e-05,-7.852664566598833e-05,-1.1862484825542197e-06,-6.259794463403523e-05,-7.278982229763642e-05,6.2407489167526364e-06,-7.96558742877096e-06,-9.496824350208044e-05,-2.8392432795953937e-05,8.950680785346776e-05,4.4211519707459956e-05,9.0
4.43599492427893e-05,-0.00011374923633411527,-7.572892354801297e-05,-5.440312816062942e-05,1.088564567908179e-05,-1.6991456504911184e-05,-6.025456968927756e-06,-4.084900865564123e-06,-1.7819951608544216e-05,5.516375676961616e-05,1.4495646610157564e-05,-0.00012491742381826043,1.5114204870769754e-05,-8.799214992905036e-05,5.467563460115343e-05,1.3826265785610303e-05,9.436394066142384e-06,5.810759830637835e-05,2.942444189102389e-05,1.0261410352541134e-05,2.0
-3.341977935633622e-05,-3.312978151370771e-05,-4.5845725253457204e-05,0.00014789878332521766,4.7038505726959556e-05,1.8784357962431386e-06,-0.0001654994994169101,-9.584058716427535e-06,-5.332710134098306e-05,2.8002641556668095e-05,-0.0001295588881475851,-2.2375503249350004e-05,-2.6287165383109823e-05,2.374635369051248e-05,-1.5354307834059e-05,-5.242927727522328e-07,-6.0735797887900844e-05,0.00012058437278028578,-5.8068602811545134e-05,-7.781082967994735e-05,1.0
4.196874215267599e-06,-7.2408729465678334e-06,-4.853442442254163e-05,5.43167807336431e-05,5.670243263011798e-05,0.00017798545013647527,-7.481461943825707e-05,-2.026171569013968e-05,-8.215294656110927e-05,-1.3070781278656796e-05,-1.8395177903585136e-05,1.560376404086128e-05,2.8558793928823434e-05,-6.824613956268877e-05,4.230259946780279e-05,0.00011264135537203401,-2.0915724235237576e-05,2.6694571715779603e-05,-6.494531407952309e-05,4.53049797215499e-05,5.0
7.813546108081937e-05,-8.326580427819863e-05,-0.00010865466902032495,-6.495451088994741e-05,-1.4624023606302217e-05,-2.7884590963367373e-05,4.258911212673411e-05,-1.436660204490181e-05,-3.727620423887856e-05,7.371512037934735e-05,-1.7832197045208886e-05,-0.00010220352851320058,-1.549129592604004e-05,-8.698294550413266e-05,4.88563600811176e-05,9.795745427254587e-06,-4.740081203635782e-05,3.473751712590456e-05,5.8427645853953436e-05,3.6687601095763966e-05,2.0
-8.977466495707631e-05,-9.51157562667504e-06,-3.060611561522819e-05,-1.0219700925517827e-06,-8.000437082955614e-05,6.118933379184455e-05,-3.9835707866586745e-05,4.800498572876677e-05,3.187779293511994e-05,-0.00010517721239011735,-0.00011273867858108133,-2.203428084612824e-05,4.2131308873649687e-05,-0.00011180699948454276,7.167801231844351e-05,0.00014032064063940197,-4.827481825486757e-05,1.1345375241944566e-05,-1.0854371794266626e-05,-1.3315740943653509e-05,11.0
1.0855976142920554e-05,-8.640792657388374e-06,-5.067968595540151e-05,4.44553152192384e-05,6.330319592962041e-05,0.0001588482700753957,-8.654690464027226e-05,-2.1176885638851672e-05,-9.250151924788952e-05,6.028931238688529e-07,-2.4406235752394423e-05,-1.0091293916048016e-06,1.873775545391254e-05,-5.724657603423111e-05,5.852764661540277e-05,0.00011177454143762589,-1.6761838196543977e-05,2.598975333967246e-05,-5.8224301028531045e-05,4.8375019105151296e-05,5.0
-2.301261520187836e-05,-2.7206895538256504e-05,-5.8158439060207456e-05,0.0001624746946617961,3.938798181479797e-05,-1.6774574760347605e-06,-0.00014727248344570398,-1.580701064085588e-05,-5.7118166296277195e-05,3.2931799069046974e-05,-0.00015473825624212623,3.6669352994067594e-06,-4.372240073280409e-05,3.368277248227969e-05,-3.798725811066106e-05,-2.193328327848576e-06,-7.927972910692915e-05,0.00012047873315168545,-6.911467062309384e-05,-7.39648676244542e-05,1.0
-6.671345909126103e-05,3.814068986685015e-05,-7.579589146189392e-05,-5.9039000916527584e-05,1.7066364307538606e-05,8.48444105940871e-05,9.280684753321111e-05,-7.944902608869597e-05,4.3819163693115115e-05,-2.156218033633195e-05,-5.171495286049321e-05,-6.007892807247117e-05,1.4213539543561637e-05,-0.00010940102220047265,-6.735243368893862e-05,4.2762858356582e-05,6.28941270406358e-05,6.423750892281532e-05,-5.621789750875905e-05,4.262470611138269e-06,0.0
1.9155522750224918e-05,-1.9237413653172553e-05,-5.940561823081225e-05,4.89839912916068e-05,7.177580846473575e-05,0.00016031405539251864,-7.93481376604177e-05,-1.5603156498400494e-05,-9.155186853604391e-05,8.269726095022634e-06,-1.8243532394990325e-05,3.164125701005105e-06,1.5042679478938226e-05,-5.0326023483648896e-05,5.541152859223075e-05,0.0001075170875992626,-3.133332575089298e-05,3.035235931747593e-05,-4.713237285614014e-05,5.052746564615518e-05,5.0
-6.114788266131654e-05,1.8726886992226355e-05,-8.149644418153912e-05,-6.128130189608783e-05,6.969461082917405e-06,4.5661290641874075e-05,0.00014298867608886212,-3.164632653351873e-05,0.0001220304038724862,-3.9742641092743725e-05,-6.556902371812612e-05,-2.4086844859994017e-05,5.459667227114551e-05,-0.0001410014956491068,-3.549277244019322e-05,1.979753142222762e-05,2.994455280713737e-05,4.587938019540161e-05,-9.773552301339805e-05,2.0726783986901864e-05,0.0
-2.0401794245117344e-05,-2.1193676730035804e-05,-4.645908484235406e-05,0.00016330162179656327,3.6956258554710075e-05,-1.1394612556614447e-05,-0.0001565314450999722,-2.9944974812678993e-05,-5.945106750004925e-05,3.603513687266968e-05,-0.00016014117863960564,-2.1583400666713715e-07,-5.001969839213416e-05,2.7106740162707865e-05,-3.2077619835035875e-05,-1.0949119314318523e-05,-9.105715434998274e-05,0.00011987957987003028,-6.360283441608772e-05,-8.15076200524345e-05,1.0
-1.374466773995664e-05,-2.032993688771967e-05,-5.4672917030984536e-05,0.00016091232828330249,3.024812576768454e-05,-1.076741136785131e-05,-0.00015626696404069662,-2.138470154022798e-05,-5.024788333685137e-05,3.1086568924365565e-05,-0.00014644004113506526,5.53760037291795e-06,-4.0436978451907635e-05,2.273417339893058e-05,-3.249031215091236e-05,1.7372367437928915e-06,-8.484227146254852e-05,0.00010832616681000218,-6.126252992544323e-05,-7.456407911377028e-05,1.0
5.924264769419096e-06,-7.745643961243331e-05,-2.5221917894668877e-05,0.00010648888564901426,6.355956429615617e-06,0.00010258115798933432,3.407744225114584e-05,-1.6094843886094168e-05,-2.9543893106165342e-05,6.0806083638453856e-05,-9.606024832464755e-06,9.271754242945462e-05,4.051520227221772e-05,-7.980054942891002e-05,-1.987368887057528e-05,2.7310443329042755e-05,6.550810212502256e-06,3.964753705076873e-05,1.3794729966321029e-05,-2.9635120881721377e-05,10.0
-2.071897324640304e-05,-8.863506081979722e-06,-5.338244227459654e-05,0.00016461079940199852,3.41288759955205e-05,-1.1754608749470208e-05,-0.0001522902603028342,-2.1864354494027793e-05,-6.468747596954927e-05,3.6839275708189234e-05,-0.00015934969997033477,-5.28325472259894e-07,-4.863124559051357e-05,3.501933679217473e-05,-3.3665539376670495e-05,-3.3685355447232723e-06,-9.085048077395186e-05,0.00010598208609735593,-6.861760630272329e-05,-7.737521809758618e-05,1.0
-3.2566520530963317e-05,-1.710091055429075e-05,-5.5445987527491525e-05,0.00016178117948584259,4.846329829888418e-05,-3.3468295441707596e-06,-0.00017669143562670797,-2.1608197130262852e-05,-5.404490730143152e-05,3.251272573834285e-05,-0.00015921080193948,-8.218028597184457e-06,-4.953746247338131e-05,3.7674639315810055e-05,-2.2861717297928408e-05,-1.2799937394447625e-06,-7.925945101305842e-05,0.00012310101010371,-7.315219409065321e-05,-7.766166527289897e-05,1.0
1.4478660887107253e-05,-1.3146753190085292e-05,-5.47277886653319e-05,4.384605563245714e-05,6.389030022546649e-05,0.00015584490029141307,-7.454905426129699e-05,-1.9939519916079007e-05,-9.279012738261372e-05,1.0429957910673693e-05,-2.42559690377675e-05,3.365285010659136e-06,1.865536796685774e-05,-4.5795975893270224e-05,5.127650001668371e-05,0.00010850345279322937,-2.6867415726883337e-05,3.160791675327346e-05,-4.884891677647829e-05,4.592263576341793e-05,5.0
5.676391810993664e-05,-0.0001204354630317539,-7.447405369020998e-05,-3.984440991189331e-05,5.354605946195079e-06,-9.016996045829728e-06,-6.661193765467033e-06,-1.8533937691245228e-06,-3.6013330827699974e-05,6.199390190886334e-05,1.6512909496668726e-05,-0.00013522099470719695,1.757517020450905e-05,-8.918631647247821e-05,5.9493879234651104e-05,2.8594513423740864e-08,8.184091711882502e-06,6.366216985043138e-05,3.5257660783827305e-05,2.6908794097835198e-05,2.0
1.6901016351766884e-05,-1.4366061805048957e-05,-5.8802681451197714e-05,4.140942110097967e-05,5.76966158405412e-05,0.00015210799756459892,-6.912715616635978e-05,-2.6487294235266745e-05,-8.925502334022895e-05,7.238621037686244e-06,-1.911399158416316e-05,-5.896490620216355e-07,1.2507441169873346e-05,-4.81964489154052e-05,4.578305743052624e-05,0.00010608536103973165,-3.238914723624475e-05,2.6028705178759992e-05,-4.409741814015433e-05,5.6893066357588395e-05,5.0
6.395292439265177e-05,-0.00012713574687950313,-8.148667984642088e-05,-3.52213392034173e-05,1.7235190171049908e-05,-2.686756124603562e-05,-3.296797149232589e-05,-4.246234311722219e-06,-3.077054861932993e-05,6.226646655704826e-05,6.867832780699246e-06,-0.00014384050155058503,6.088877853471786e-06,-9.396880341228098e-05,5.074569344287738e-05,-2.4325672711711377e-06,1.0725718311732635e-05,7.606246072100475e-05,2.1686988475266844e-05,1.0674904842744581e-05,2.0
-9.64367063716054e-06,-1.6897041859920137e-05,-6.080279126763344e-05,-4.442013960215263e-05,3.625234239734709e-05,0.00010271891369484365,4.285404793336056e-05,-2.0630641301977448e-05,-6.712405593134463e-06,-7.974216714501381e-06,-2.5665092834969983e-05,-5.342632357496768e-05,3.693778853630647e-05,-0.00011420644295867532,2.9630795324919745e-05,4.707454354502261e-05,2.4380478862440214e-05,4.435246592038311e-05,-4.6617242333013564e-05,3.819569246843457e-05,0.0
8.725332008907571e-05,-2.690596920729149e-05,-0.00013538566417992115,-6.620273779844865e-05,-8.294356666738167e-05,-2.3289125238079578e-05,0.00015952087414916605,-4.709016502602026e-05,-6.283950642682612e-05,9.262240200769156e-05,-0.00011457303480710834,2.0112565835006535e-07,-7.590870518470183e-05,-6.812039646320045e-05,-2.8116555768065155e-06,-6.856789696030319e-06,-0.00011437214561738074,-2.4056238544289954e-05,8.944566798163578e-05,3.291841858299449e-05,9.0
1.1568263289518654e-05,-1.1382911907276139e-05,-5.8782366977538913e-05,5.005220737075433e-05,6.31283619441092e-05,0.00015897689445409924,-8.288866956718266e-05,-1.6226897059823386e-05,-9.178808249998838e-05,2.166019839933142e-06,-2.1557716536335647e-05,-1.1606416592258029e-06,2.523344119254034e-05,-5.114004670758732e-05,4.922276275465265e-05,0.00010604545968817547,-2.2216470824787393e-05,2.4624212528578937e-05,-4.974018520442769e-05,4.4934615289093927e-05,5.0
-3.255263436585665e-05,-1.5318411897169426e-05,-5.5839758715592325e-05,0.00015974203415680677,4.176959191681817e-05,1.0378480510553345e-06,-0.0001505069521954283,-2.4132299586199224e-05,-5.14004314027261e-05,2.5152861780952662e-05,-0.00016160434461198747,3.016893970197998e-06,-4.2274776205886155e-05,2.86255162791349e-05,-3.779484541155398e-05,3.3428095775889233e-06,-8.312900172313675e-05,0.00011250298121012747,-7.463493966497481e-05,-8.243662887252867e-05,1.0
-2.7183370548300445e-05,-1.2790076652891003e-05,-5.348338163457811e-05,0.00016786661581136286,3.276035567978397e-05,-1.0585974450805224e-05,-0.00015423198055941612,-1.8475002434570342e-05,-6.244026008062065e-05,3.431208824622445e-05,-0.00016476096061524004,4.093162715435028e-06,-4.7346427891170606e-05,3.109065437456593e-05,-3.449685755185783e-05,-6.4538799051661044e-06,-0.00010077681508846581,0.00011942048149649054,-7.070707943057641e-05,-8.859526133164763e-05,1.0
0.00010033565195044503,-3.897240094374865e-05,-0.00013798009604215622,-5.243084888206795e-05,-7.426187221426517e-05,-3.231058508390561e-05,0.0001359050365863368,-4.578748848871328e-05,-4.7503730456810445e-05,8.981163409771398e-05,-8.934643119573593e-05,-5.832085662405007e-06,-6.679712532786652e-05,-6.24780950602144e-05,-2.2774111130274832e-06,-2.520646376069635e-06,-9.927804057952017e-05,-3.07301088469103e-05,9.613459405954927e-05,3.1912775739328936e-05,9.0
-3.348160316818394e-05,-1.9430119209573604e-05,-6.02503314439673e-05,0.00015482702292501926,3.8142236007843167e-05,-9.909043001243845e-06,-0.00015270897711161524,-1.8063969037029892e-05,-5.892968692933209e-05,3.2588377507636324e-05,-0.00016571671585552394,8.856932254275307e-07,-4.7063811507541686e-05,3.60881385859102e-05,-3.139933687634766e-05,-1.535922274342738e-05,-9.227762348018587e-05,0.00012110298121115193,-6.871629739180207e-05,-7.974899199325591e-05,1.0
8.35763057693839e-06,-1.2488071661209688e-05,-5.11449106852524e-05,4.500065915635787e-05,6.437583215301856e-05,0.0001647164608584717,-8.217801951104775e-05,-1.9409468222875148e-05,-9.341019176645204e-05,1.0007061064243317e-06,-1.8085844203596935e-05,-1.6605667951807845e-06,2.3344477085629478e-05,-5.325678284862079e-05,4.652340430766344e-05,0.0001148976298281923,-3.280788951087743e-05,3.353603096911684e-05,-5.145291652297601e-05,4.892464494332671e-05,5.0
-1.1661064490908757e-05,-2.7483674784889445e-05,-5.3414350986713544e-05,0.00016027639503590763,4.00873577746097e-05,-2.0356292225187644e-05,-0.00013608194421976805,-2.8149290301371366e-05,-5.801231600344181e-05,3.673973333206959e-05,-0.00015106673527043313,8.286536285595503e-06,-3.706086135935038e-05,2.2088686819188297e-05,-4.062699736095965e-05,-8.344219168066047e-06,-8.623571193311363e-05,0.00011169709614478052,-5.6486747780581936e-05,-8.126880129566416e-05,1.0
1.627883466426283e-05,-9.007813787320629e-06,-5.82682914682664e-05,4.065986649948172e-05,6.822899740654975e-05,0.00016764913743827492,-8.111310307867825e-05,-2.6457306375959888e-05,-9.203331865137443e-05,-2.044907887466252e-08,-1.9689636246766895e-05,4.3069007915619295e-06,2.022705666604452e-05,-5.670211976394057e-05,4.9591159040573984e-05,0.00010554857726674527,-2.5593537429813296e-05,2.4096036213450134e-05,-4.903423541691154e-05,4.7768309741513804e-05,5.0
8.844547846820205e-05,-7.02064935467206e-05,-0.00012572079140227288,-7.235999510157853e-05,-3.757428930839524e-05,-4.1142484406009316e-05,5.8423407608643174e-05,-2.614087497931905e-05,-5.2373397920746356e-05,7.147805445129052e-05,-3.829658089671284e-05,-5.364109529182315e-05,-3.391691279830411e-05,-6.952033436391503e-05,2.1403458958957344e-05,8.526596502633765e-06,-6.132998532848433e-05,1.2092378710804041e-05,7.665649172849953e-05,3.836092582787387e-05,9.0
-2.133825546479784e-05,-2.681926889636088e-05,-3.793344512814656e-05,0.00016150300507433712,2.344968197576236e-05,5.592242814600468e-06,-0.00010951563308481127,-2.7441907150205225e-05,-5.5951277317944914e-05,4.199176328256726e-05,-0.0001443526562070474,3.5995253711007535e-05,-3.397089312784374e-05,1.3055083400104195e-05,-3.792030111071654e-05,-1.8697774066822603e-06,-6.764235877199098e-05,0.00010369393567088991,-5.534194497158751e-05,-7.279414421645924e-05,1.0
8.935858204495162e-05,-4.027953400509432e-05,-0.00013991141167934984,-7.005023508099839e-05,-7.375919085461646e-05,-4.0180180803872645e-05,0.00012640561908483505,-3.6992947570979595e-05,-3.551503687049262e-05,0.00010259822010993958,-8.032857294892892e-05,-3.936360735679045e-05,-5.817951387143694e-05,-6.982225750107318e-05,2.0229246729286388e-05,-4.785979399457574e-06,-0.00010722481238190085,-2.061352461169008e-05,9.01979801710695e-05,5.565833635046147e-05,9.0
1.3264463632367551e-05,-4.134944902034476e-06,-5.134069579071365e-05,4.011647979496047e-05,6.346865848172456e-05,0.00016559012874495238,-8.407202403759584e-05,-2.3888542273198254e-05,-9.0353365521878e-05,-4.75661363452673e-06,-1.003810393740423e-05,1.7538668544148095e-06,2.4783208573353477e-05,-6.525411299662665e-05,4.347739013610408e-05,0.00010898862819885835,-2.362348277529236e-05,2.696376759558916e-05,-5.651069659506902e-05,5.24620663782116e-05,5.0
4.318078208598308e-05,-0.000125435835798271,-6.8318797275424e-05,-3.5179116821382195e-05,7.617107257829048e-06,-9.418807167094201e-06,-1.1443013136158697e-05,1.1611555237323046e-06,-2.8865797503385693e-05,5.341437645256519e-05,1.071119822881883e-05,-0.00012436923861969262,2.87255497823935e-05,-0.00010609542368911207,5.5393160437233746e-05,1.8277441995451227e-05,2.2957166947890073e-05,6.447127088904381e-05,3.0604373023379594e-05,1.5043187886476517e-06,2.0
8.075959340203553e-05,-2.6927114959107712e-05,-0.00013064737140666693,-6.440082506742328e-05,-6.761334952898324e-05,-5.120538844494149e-05,0.00013068130647297949,-4.7718072892166674e-05,-4.152628389419988e-05,9.80095355771482e-05,-8.402120147366077e-05,-2.826872696459759e-05,-5.517359386431053e-05,-5.980249625281431e-05,1.513776442152448e-05,-1.5785277355462313e-05,-0.00010691598436096683,-1.5306684872484766e-05,9.297367796534672e-05,3.7720536056440324e-05,9.0
4.68971484224312e-06,-6.876572297187522e-05,-3.2901978556765243e-05,9.295407653553411e-05,-4.59419097751379e-05,7.921780343167484e-05,8.50666401674971e-05,-2.4564571504015476e-05,-3.1893050618236884e-06,6.0376176406862214e-05,-9.524192137178034e-06,0.00011815827747341245,3.445465335971676e-05,-7.93498766142875e-05,-4.782265023095533e-05,1.181647621706361e-05,-5.030253760196501e-06,1.6990261428873055e-05,5.5376149248331785e-05,-1.562690522405319e-05,10.0
6.5325439209118485e-06,-2.5288634788012132e-05,-5.552511720452458e-05,9.969336679205298e-05,6.932234100531787e-05,9.977504669222981e-05,-0.0001054391177603975,-2.5257215384044684e-05,-7.003920472925529e-05,1.1413729225751013e-05,-4.525986150838435e-05,7.266121428983752e-06,1.6296551621053368e-05,-9.679311915533617e-06,1.9703542420757003e-05,7.189614552771673e-05,-2.9848733902326785e-05,7.134567567845806e-05,-5.7928849855670705e-05,-2.2703843569615856e-05,5.0
1.563328260090202e-05,-1.6854821296874434e-05,-5.2607392717618495e-05,4.48949976998847e-05,6.564694922417402e-05,0.0001480208447901532,-9.231660078512505e-05,-2.2728014300810173e-05,-9.460086585022509e-05,3.3842406992334872e-06,-1.7933758499566466e-05,-2.0259262782929e-06,2.443955236230977e-05,-4.617508238879964e-05,5.446523573482409e-05,0.00011513298522913828,-1.705947761365678e-05,3.453684621490538e-05,-5.56148515897803e-05,4.69701481051743e-05,5.0
9.5627925475128e-05,-2.138272247975692e-05,-0.00014176737749949098,-4.9947826482821256e-05,-8.148506458383054e-05,-2.5792494852794334e-05,0.0001475353492423892,-4.638429163605906e-05,-6.318988016573712e-05,9.84573271125555e-05,-0.00011750461999326944,4.087360139237717e-06,-8.71104930411093e-05,-5.998838605592027e-05,-1.670231722528115e-05,-1.3372573448577896e-05,-0.00011805474787252024,-2.473262429703027e-05,8.210437226807699e-05,2.8476915758801624e-05,9.0
1.0206160368397832e-05,-5.723367939935997e-05,-5.293284266372211e-05,0.00010733818635344505,-3.567929525161162e-06,5.316837996360846e-05,1.743246684782207e-05,-2.6339246687712148e-05,-4.222914867568761e-06,6.740610842825845e-05,-4.4994896597927436e-05,5.794043681817129e-05,1.894843444461003e-05,-7.1780348662287e-05,-3.790614573517814e-05,1.191221053886693e-05,-1.252882975677494e-05,4.233648724039085e-05,1.4465545973507687e-05,-3.906690108124167e-05,10.0
7.593465852551162e-06,-5.980426794849336e-05,-4.0512470150133595e-05,8.91150557436049e-05,-2.1738902432844043e-05,6.466665945481509e-05,6.501392635982484e-05,-2.3115902877179906e-05,-1.6194086128962226e-05,5.892298213439062e-05,-3.4069016692228615e-05,8.364512177649885e-05,3.042638309125323e-05,-7.232700590975583e-05,-3.8147842133184895e-05,6.674795258732047e-06,-3.1365589165943675e-06,2.8341044526314363e-05,2.8722026399918832e-05,-2.7850479455082677e-05,10.0
8.44610076455865e-06,-7.254884258145466e-05,-4.3646839912980795e-05,8.127027103910223e-05,4.6869345169398e-06,6.506806676043198e-05,5.774544115411118e-05,-2.0342384232208133e-05,4.036246536998078e-07,7.249415648402646e-05,-2.178028807975352e-06,4.321798769524321e-05,3.8563241105293855e-05,-8.884458657121286e-05,-2.703368227230385e-05,1.2930806406075135e-05,2.4683308765816037e-06,4.5906592276878655e-05,2.995686372742057e-05,-2.268936987093184e-05,10.0
1.0329909855499864e-05,-7.4733252404257655e-06,-5.193531615077518e-05,4.481700307223946e-05,7.419020403176546e-05,0.00016020750626921654,-8.072453056229278e-05,-1.6777114069554955e-05,-9.093062544707209e-05,1.4437500794883817e-06,-2.249218596261926e-05,4.7215826270985417e-07,1.647666431381367e-05,-5.063794014859013e-05,5.127791519043967e-05,0.0001061814182321541,-2.8155343898106366e-05,3.0172210244927555e-05,-4.818616434931755e-05,4.0874543628888205e-05,5.0
1.2115458957850933e-05,-1.013582368614152e-05,-5.5589654948562384e-05,4.6694221964571625e-05,6.564464274561033e-05,0.00015954930859152228,-7.963668031152338e-05,-2.1587791707133874e-05,-9.196474275086075e-05,3.495384589768946e-06,-1.7437610949855298e-05,3.389224730199203e-06,2.001281791308429e-05,-4.817560693481937e-05,5.5672011512797326e-05,0.00010728099005063996,-2.9768454623990692e-05,3.829586785286665e-05,-5.4264186474028975e-05,5.210453673498705e-05,5.0
1.6468729882035404e-05,-1.468433765694499e-05,-4.848175012739375e-05,5.326040991349146e-05,6.200552161317319e-05,0.00016622012481093407,-8.368059934582561e-05,-1.8629132682690397e-05,-0.00010092627053381875,1.1040392564609647e-06,-1.1362066288711503e-05,-9.729737939778715e-07,2.6918158255284652e-05,-5.50886761629954e-05,5.371856241254136e-05,0.00011211699165869504,-2.1929643480689265e-05,2.8121368814026937e-05,-5.2033381507499143e-05,5.435411003418267e-05,5.0
4.758415525429882e-05,-0.00012675710604526103,-6.694204785162583e-05,-2.187439167755656e-05,-1.2000261449429672e-05,2.121272700605914e-06,3.839446435449645e-05,-2.5475668735452928e-05,-5.179528670851141e-06,5.0562393880682066e-05,1.0106524314323906e-05,-6.526633660541847e-05,2.819226574501954e-05,-8.93582619028166e-05,2.450388274155557e-05,-1.3315331671037711e-05,3.3333599276375026e-06,4.7037756303325295e-05,3.3543194149388e-05,1.6289608538500033e-05,2.0
-2.704495273064822e-05,-1.9523700757417828e-05,-5.4943877330515534e-05,0.00016455762670375407,3.889151048497297e-05,-7.1219865276361816e-06,-0.000164542201673612,-2.354243042645976e-05,-5.60248845431488e-05,3.290190943516791e-05,-0.00015701573283877224,7.93651179264998e-06,-4.505696051637642e-05,3.444624599069357e-05,-3.1356663384940475e-05,1.0265175660606474e-06,-8.926128793973476e-05,0.00011887226719409227,-8.02214999566786e-05,-8.288359094876796e-05,1.0
1.576435170136392e-05,-1.1762291251216084e-05,-5.358755879569799e-05,5.390113074099645e-05,5.653776315739378e-05,0.00016095121100079268,-8.818021160550416e-05,-2.4309680156875402e-05,-9.141108603216708e-05,6.655562174273655e-06,-1.4903049304848537e-05,6.347087037283927e-06,1.9531486032065004e-05,-4.9743019189918414e-05,5.268837412586436e-05,0.0001122003304772079,-2.8944617952220142e-05,2.886224683606997e-05,-5.153729216544889e-05,4.655364318750799e-05,5.0
1.7991813365370035e-05,-2.0137234969297424e-05,-6.011539517203346e-05,4.9999551265500486e-05,6.143180507933721e-05,0.00015149977116379887,-7.860402547521517e-05,-1.7434567780583166e-05,-9.847975161392242e-05,8.593684469815344e-06,-2.2199656086741015e-05,7.279968485818245e-07,1.7378406482748687e-05,-4.818777597392909e-05,5.5762513511581346e-05,0.00010929159179795533,-3.1207717256620526e-05,3.061923780478537e-05,-3.558065145625733e-05,3.71888090739958e-05,5.0
-2.7305304683977738e-05,-2.1518369976547547e-05,-5.515038355952129e-05,0.00016201616381295025,3.66790518455673e-05,-9.752240657689981e-06,-0.0001748427894199267,-5.39628672413528e-06,-4.99075285915751e-05,3.235056283301674e-05,-0.00015025868196971714,-3.0962455639382824e-06,-4.097432974958792e-05,2.6561399863567203e-05,-2.062465500785038e-05,2.845314156729728e-06,-8.630706724943593e-05,0.00011323540820740163,-6.692832539556548e-05,-8.143336162902415e-05,1.0
-3.05756984744221e-05,-2.342573498026468e-05,-4.617551894625649e-05,0.00015536000137217343,3.9832993934396654e-05,-7.476451173715759e-06,-0.00015382078709080815,-2.2711261408403516e-05,-5.344762757886201e-05,2.1989570086589083e-05,-0.00015750681632198393,-8.025408533285372e-07,-4.904009620076977e-05,3.425319300731644e-05,-3.512864714139141e-05,-6.870803190395236e-06,-9.387782483827323e-05,0.0001265148021047935,-6.770006439182907e-05,-7.913833542261273e-05,1.0
1.6406695067416877e-05,-1.1194893886568025e-05,-4.527334385784343e-05,4.899718624074012e-05,6.032252713339403e-05,0.0001619986433070153,-9.357336239190772e-05,-2.2485541194328107e-05,-9.437235712539405e-05,1.5963087207637727e-06,-1.3943757949164137e-05,7.22395270713605e-07,1.8234215531265363e-05,-5.778046033810824e-05,4.792512481799349e-05,0.00010733516683103517,-2.2928428734303452e-05,3.551179906935431e-05,-5.4815609473735094e-05,4.7290024667745456e-05,5.0
8.874721243046224e-05,-4.997449286747724e-05,-0.00013107003178447485,-5.368066194932908e-05,-6.267392745940015e-05,-4.811864346265793e-05,0.00011266221554251388,-3.950178506784141e-05,-4.397249358589761e-05,9.748563752509654e-05,-8.138217526720837e-05,-4.002288915216923e-05,-6.141609628684819e-05,-6.175453017931432e-05,2.3757929739076644e-05,-5.456920916913077e-06,-9.750559547683224e-05,-4.994937626179308e-06,7.052582077449188e-05,3.7946196243865415e-05,9.0
-5.491588672157377e-05,6.054167897673324e-06,-7.780514715705067e-05,-5.8536737924441695e-05,8.014530976652168e-06,4.914545934298076e-05,0.0001459608320146799,-3.0313265597214922e-05,0.00011647495557554066,-3.4633612813195214e-05,-7.482888759113848e-05,-2.534405211918056e-05,6.351625052047893e-05,-0.00014786816609557718,-3.522316546877846e-05,8.843453542795032e-06,2.647719520609826e-05,4.782062751473859e-05,-0.00010178433876717463,2.0567356841638684e-05,0.0
8.495617657899857e-05,-5.2335486543597654e-05,-0.00012410654744599015,-4.5124666939955205e-05,-6.994450814090669e-05,-4.0789058402879164e-05,0.00012359203537926078,-4.4062588131055236e-05,-4.3142852518940344e-05,9.236771438736469e-05,-7.939837814774364e-05,-2.0261775716789998e-05,-5.717479143640958e-05,-6.174473674036562e-05,9.267729183193296e-06,-3.106128133367747e-06,-0.00010274413216393441,-1.0258090696879663e-05,7.663951691938564e-05,3.769077738979831e-05,9.0
-2.6642617740435526e-05,-1.556616734887939e-05,-5.5134114518295974e-05,0.00015705794794484973,2.411618879705202e-05,-9.135455911746249e-07,-0.00016646785661578178,-9.235824109055102e-06,-5.408980723586865e-05,2.224239506176673e-05,-0.00016613496700301766,5.721237357647624e-06,-4.50556144642178e-05,2.9734736017417163e-05,-2.8061131160939112e-05,-6.937836587894708e-06,-9.415307431481779e-05,0.00011484164861030877,-6.538672460010275e-05,-9.231092553818598e-05,1.0
1.9938117475248873e-05,-1.6662794223520905e-05,-5.3679494158132e-05,4.4177370000397786e-05,6.694010517094284e-05,0.00015814251673873514,-8.72173550305888e-05,-2.3007816707831807e-05,-9.800060070119798e-05,-4.5693013817071915e-09,-2.5334837118862197e-05,-1.1527860806381796e-05,2.188536927860696e-05,-5.894217247259803e-05,5.053749555372633e-05,0.00010362725879531354,-1.9134333342663012e-05,3.373030631337315e-05,-6.198046321514994e-05,5.3059367928653955e-05,5.0
-1.7994359950535e-05,-1.267844345420599e-05,-5.376547414925881e-05,0.00016026501543819904,3.486698915367015e-05,-1.2051290468662046e-05,-0.00015248286945279688,-1.898847403936088e-05,-6.031211887602694e-05,2.8909355023643002e-05,-0.00016287341713905334,2.7024252631235868e-06,-4.455362795852125e-05,3.6603669286705554e-05,-2.9598206310765818e-05,-2.987086190842092e-06,-9.784020949155092e-05,0.00011568432091735303,-6.743499397998676e-05,-8.272724517155439e-05,1.0
-1.1146767064929008e-08,1.1594522220548242e-05,-4.477281618164852e-05,3.2479198125656694e-05,4.9607220717007294e-05,0.00016136626072693616,-7.579541124869138e-05,-2.1512694729608484e-05,-7.901893695816398e-05,-1.5160625480348244e-05,-1.541002347948961e-05,5.297965344652766e-06,2.785656943160575e-05,-5.790406066807918e-05,3.5672685044119135e-05,0.00011157806147821248,-2.6256100682076067e-05,2.567574119893834e-05,-4.994885966880247e-05,4.221703056828119e-05,5.0
1.3223267160356045e-05,-9.90129410638474e-06,-5.910926847718656e-05,4.751139204017818e-05,5.848449291079305e-05,0.000165283476235345,-7.599053060403094e-05,-1.9773844542214647e-05,-9.617832984076813e-05,5.779991624876857e-06,-1.4812256267759949e-05,1.6192357179534156e-06,2.1286225091898814e-05,-5.704443174181506e-05,5.2086354116909206e-05,0.00010670305346138775,-2.6509131203056313e-05,3.232349263271317e-05,-4.7698118578409776e-05,5.223221523920074e-05,5.0
-2.1855843442608602e-05,-1.4208173524821177e-05,-5.1415008783806115e-05,0.00016351498197764158,4.18193667428568e-05,-7.713136255915742e-06,-0.0001508821442257613,-2.6000117941293865e-05,-6.265517004067078e-05,3.915929846698418e-05,-0.0001654133084230125,7.750968507025391e-06,-4.612534394254908e-05,2.965443127322942e-05,-3.0113063985481858e-05,-1.3005974324187264e-06,-9.02168030734174e-05,0.00011582524166442454,-7.323294266825542e-05,-7.805085624568164e-05,1.0
1.5747798897791654e-05,-1.0393130651209503e-05,-5.850155866937712e-05,4.5663728087674826e-05,5.0899263442261145e-05,0.0001432165299775079,-8.48816562211141e-05,-2.2773616365157068e-05,-8.490509208058938e-05,-4.859502951148897e-07,-1.275199610972777e-05,-1.0658040082489606e-05,1.7306874724454246e-05,-5.4231226386036724e-05,5.481487823999487e-05,0.00010900274355662987,-1.8853565052268095e-05,3.164478039252572e-05,-3.940848182537593e-05,4.185151919955388e-05,5.0
1.0113391908816993e-05,-1.2512409739429131e-05,-5.841544771101326e-05,4.1137107473332435e-05,6.997276068432257e-05,0.00016961108485702425,-7.884341175667942e-05,-2.0047646103193983e-05,-9.224067616742104e-05,7.14997440809384e-07,-1.6857196897035465e-05,-1.6336480257450603e-06,2.9595197702292353e-05,-6.126015796326101e-05,5.3895819291938096e-05,0.00010798864241223782,-2.082445462292526e-05,3.2271196687361225e-05,-5.0281254516448826e-05,4.9717888032319024e-05,5.0
5.00790201840573e-06,-6.389010377461091e-05,-3.7523455830523744e-05,9.288747969549149e-05,-2.2941054339753464e-05,6.334917270578444e-05,7.153561455197632e-05,-3.149197800667025e-05,-9.15920827537775e-06,7.562371320091188e-05,-2.729453808569815e-05,8.99721635505557e-05,1.591827822267078e-05,-7.564805855508894e-05,-4.4115513446740806e-05,1.4190118236001581e-05,-8.930705007514916e-06,3.1027328077470884e-05,3.16302030114457e-05,-3.097918306593783e-05,10.0
